<?xml version="1.0"?>
<opencv_storage>
<!-- Created using Computer Vision System Toolbox(tm) for MATLAB(R) -->
<!-- Version 9.2.0.556344 (R2017a) -->
<!-- Compatible with OpenCV 3.1 -->
<cascade>
  <stageType>BOOST</stageType>
  <featureType>HAAR</featureType>
  <height>32</height>
  <width>32</width>
  <stageParams>
    <boostType>GAB</boostType>
    <minHitRate>9.9500000476837158e-01</minHitRate>
    <maxFalseAlarm>2.0000000298023224e-01</maxFalseAlarm>
    <weightTrimRate>9.4999999999999996e-01</weightTrimRate>
    <maxDepth>1</maxDepth>
    <maxWeakCount>100</maxWeakCount></stageParams>
  <featureParams>
    <maxCatCount>0</maxCatCount>
    <featSize>1</featSize>
    <mode>BASIC</mode></featureParams>
  <stageNum>10</stageNum>
  <stages>
    <!-- stage 0 -->
    <_>
      <maxWeakCount>7</maxWeakCount>
      <stageThreshold>-9.5272177457809448e-01</stageThreshold>
      <weakClassifiers>
        <_>
          <internalNodes>
            0 -1 85 4.0873102843761444e-02</internalNodes>
          <leafValues>
            -8.1612449884414673e-01 8.9891695976257324e-01</leafValues></_>
        <_>
          <internalNodes>
            0 -1 32 -3.7487693130970001e-02</internalNodes>
          <leafValues>
            7.5087165832519531e-01 -5.1145535707473755e-01</leafValues></_>
        <_>
          <internalNodes>
            0 -1 64 -4.2474274523556232e-03</internalNodes>
          <leafValues>
            6.5503054857254028e-01 -5.1980370283126831e-01</leafValues></_>
        <_>
          <internalNodes>
            0 -1 14 -2.6276273652911186e-02</internalNodes>
          <leafValues>
            6.8377971649169922e-01 -3.8509926199913025e-01</leafValues></_>
        <_>
          <internalNodes>
            0 -1 4 6.8414255976676941e-02</internalNodes>
          <leafValues>
            -3.2730355858802795e-01 8.2840687036514282e-01</leafValues></_>
        <_>
          <internalNodes>
            0 -1 8 -1.4325955882668495e-02</internalNodes>
          <leafValues>
            9.0399700403213501e-01 -3.2585918903350830e-01</leafValues></_>
        <_>
          <internalNodes>
            0 -1 83 -3.3318307250738144e-02</internalNodes>
          <leafValues>
            7.7721327543258667e-01 -2.9196915030479431e-01</leafValues></_></weakClassifiers></_>
    <!-- stage 1 -->
    <_>
      <maxWeakCount>7</maxWeakCount>
      <stageThreshold>-9.5913708209991455e-01</stageThreshold>
      <weakClassifiers>
        <_>
          <internalNodes>
            0 -1 45 4.0532454848289490e-02</internalNodes>
          <leafValues>
            -7.7528089284896851e-01 8.2352942228317261e-01</leafValues></_>
        <_>
          <internalNodes>
            0 -1 90 2.4659795686602592e-02</internalNodes>
          <leafValues>
            -4.2948409914970398e-01 7.7957046031951904e-01</leafValues></_>
        <_>
          <internalNodes>
            0 -1 49 4.2179562151432037e-02</internalNodes>
          <leafValues>
            -2.8659600019454956e-01 8.2633656263351440e-01</leafValues></_>
        <_>
          <internalNodes>
            0 -1 98 -1.0325410403311253e-04</internalNodes>
          <leafValues>
            -8.3090597391128540e-01 3.1885519623756409e-01</leafValues></_>
        <_>
          <internalNodes>
            0 -1 0 -1.5076078707352281e-03</internalNodes>
          <leafValues>
            -7.9466122388839722e-01 2.8245425224304199e-01</leafValues></_>
        <_>
          <internalNodes>
            0 -1 99 -2.9482613317668438e-03</internalNodes>
          <leafValues>
            -7.6337784528732300e-01 2.4295823276042938e-01</leafValues></_>
        <_>
          <internalNodes>
            0 -1 3 -1.8390966579318047e-04</internalNodes>
          <leafValues>
            -7.6109290122985840e-01 2.7901619672775269e-01</leafValues></_></weakClassifiers></_>
    <!-- stage 2 -->
    <_>
      <maxWeakCount>10</maxWeakCount>
      <stageThreshold>-1.3589974641799927e+00</stageThreshold>
      <weakClassifiers>
        <_>
          <internalNodes>
            0 -1 6 -4.2758256196975708e-02</internalNodes>
          <leafValues>
            5.8125001192092896e-01 -7.7409636974334717e-01</leafValues></_>
        <_>
          <internalNodes>
            0 -1 40 -2.9663227498531342e-02</internalNodes>
          <leafValues>
            6.1625945568084717e-01 -4.8451253771781921e-01</leafValues></_>
        <_>
          <internalNodes>
            0 -1 1 1.1125196469947696e-03</internalNodes>
          <leafValues>
            2.9603481292724609e-01 -8.0494743585586548e-01</leafValues></_>
        <_>
          <internalNodes>
            0 -1 2 -1.9555422477424145e-03</internalNodes>
          <leafValues>
            -8.1511366367340088e-01 2.8456410765647888e-01</leafValues></_>
        <_>
          <internalNodes>
            0 -1 103 -1.3147727586328983e-03</internalNodes>
          <leafValues>
            -7.5268334150314331e-01 1.8674810230731964e-01</leafValues></_>
        <_>
          <internalNodes>
            0 -1 16 6.4839827246032655e-05</internalNodes>
          <leafValues>
            3.2044309377670288e-01 -6.2449485063552856e-01</leafValues></_>
        <_>
          <internalNodes>
            0 -1 25 4.2621260508894920e-03</internalNodes>
          <leafValues>
            -5.2063798904418945e-01 3.9459568262100220e-01</leafValues></_>
        <_>
          <internalNodes>
            0 -1 11 -4.8925494775176048e-04</internalNodes>
          <leafValues>
            -7.6348191499710083e-01 2.9079389572143555e-01</leafValues></_>
        <_>
          <internalNodes>
            0 -1 57 4.2541732545942068e-04</internalNodes>
          <leafValues>
            -3.4611451625823975e-01 6.3914471864700317e-01</leafValues></_>
        <_>
          <internalNodes>
            0 -1 23 -6.3660845626145601e-04</internalNodes>
          <leafValues>
            -6.2943774461746216e-01 3.9889910817146301e-01</leafValues></_></weakClassifiers></_>
    <!-- stage 3 -->
    <_>
      <maxWeakCount>11</maxWeakCount>
      <stageThreshold>-1.1941732168197632e+00</stageThreshold>
      <weakClassifiers>
        <_>
          <internalNodes>
            0 -1 84 7.0342071354389191e-02</internalNodes>
          <leafValues>
            -7.9714739322662354e-01 4.9575069546699524e-01</leafValues></_>
        <_>
          <internalNodes>
            0 -1 86 9.8064877092838287e-03</internalNodes>
          <leafValues>
            -4.3045595288276672e-01 6.3801211118698120e-01</leafValues></_>
        <_>
          <internalNodes>
            0 -1 18 -2.7831958141177893e-04</internalNodes>
          <leafValues>
            -8.0943208932876587e-01 2.3044002056121826e-01</leafValues></_>
        <_>
          <internalNodes>
            0 -1 73 -6.8830826785415411e-04</internalNodes>
          <leafValues>
            6.6282570362091064e-01 -2.7220898866653442e-01</leafValues></_>
        <_>
          <internalNodes>
            0 -1 97 1.4103364665061235e-03</internalNodes>
          <leafValues>
            2.3082904517650604e-01 -7.9272341728210449e-01</leafValues></_>
        <_>
          <internalNodes>
            0 -1 81 -1.5683784149587154e-03</internalNodes>
          <leafValues>
            -8.3894598484039307e-01 1.8569435179233551e-01</leafValues></_>
        <_>
          <internalNodes>
            0 -1 100 -5.4926960729062557e-04</internalNodes>
          <leafValues>
            -6.5080595016479492e-01 2.5367152690887451e-01</leafValues></_>
        <_>
          <internalNodes>
            0 -1 39 -1.7008165596053004e-03</internalNodes>
          <leafValues>
            5.2642947435379028e-01 -4.2214199900627136e-01</leafValues></_>
        <_>
          <internalNodes>
            0 -1 59 1.8465123139321804e-04</internalNodes>
          <leafValues>
            2.2543922066688538e-01 -7.7859163284301758e-01</leafValues></_>
        <_>
          <internalNodes>
            0 -1 37 -4.7926928848028183e-02</internalNodes>
          <leafValues>
            5.3280115127563477e-01 -3.7005370855331421e-01</leafValues></_>
        <_>
          <internalNodes>
            0 -1 75 1.2167120352387428e-02</internalNodes>
          <leafValues>
            -3.1548392772674561e-01 7.1655303239822388e-01</leafValues></_></weakClassifiers></_>
    <!-- stage 4 -->
    <_>
      <maxWeakCount>9</maxWeakCount>
      <stageThreshold>-7.5258892774581909e-01</stageThreshold>
      <weakClassifiers>
        <_>
          <internalNodes>
            0 -1 46 2.2312827408313751e-02</internalNodes>
          <leafValues>
            -7.5617283582687378e-01 4.8214286565780640e-01</leafValues></_>
        <_>
          <internalNodes>
            0 -1 12 -6.0625888407230377e-02</internalNodes>
          <leafValues>
            5.4875069856643677e-01 -4.3837878108024597e-01</leafValues></_>
        <_>
          <internalNodes>
            0 -1 67 -2.2586639970541000e-03</internalNodes>
          <leafValues>
            7.4718600511550903e-01 -2.6389452815055847e-01</leafValues></_>
        <_>
          <internalNodes>
            0 -1 24 -1.3909232802689075e-04</internalNodes>
          <leafValues>
            -7.4142402410507202e-01 2.8327125310897827e-01</leafValues></_>
        <_>
          <internalNodes>
            0 -1 56 -8.5471151396632195e-03</internalNodes>
          <leafValues>
            3.8050237298011780e-01 -4.6353045105934143e-01</leafValues></_>
        <_>
          <internalNodes>
            0 -1 36 -3.7240661680698395e-02</internalNodes>
          <leafValues>
            6.7682349681854248e-01 -2.8266450762748718e-01</leafValues></_>
        <_>
          <internalNodes>
            0 -1 58 -1.3106751721352339e-03</internalNodes>
          <leafValues>
            4.2798250913619995e-01 -4.7987249493598938e-01</leafValues></_>
        <_>
          <internalNodes>
            0 -1 93 -6.2883488135412335e-04</internalNodes>
          <leafValues>
            -7.2162091732025146e-01 2.6162576675415039e-01</leafValues></_>
        <_>
          <internalNodes>
            0 -1 61 -1.6195049975067377e-03</internalNodes>
          <leafValues>
            6.0118043422698975e-01 -2.9965293407440186e-01</leafValues></_></weakClassifiers></_>
    <!-- stage 5 -->
    <_>
      <maxWeakCount>12</maxWeakCount>
      <stageThreshold>-1.1680046319961548e+00</stageThreshold>
      <weakClassifiers>
        <_>
          <internalNodes>
            0 -1 89 2.3925010114908218e-02</internalNodes>
          <leafValues>
            -7.8558874130249023e-01 2.8674697875976562e-01</leafValues></_>
        <_>
          <internalNodes>
            0 -1 55 -1.2911168858408928e-02</internalNodes>
          <leafValues>
            3.6857271194458008e-01 -5.2510333061218262e-01</leafValues></_>
        <_>
          <internalNodes>
            0 -1 66 -2.8226785361766815e-03</internalNodes>
          <leafValues>
            5.5599969625473022e-01 -3.0992445349693298e-01</leafValues></_>
        <_>
          <internalNodes>
            0 -1 26 1.6732582589611411e-03</internalNodes>
          <leafValues>
            -5.5785435438156128e-01 3.0255356431007385e-01</leafValues></_>
        <_>
          <internalNodes>
            0 -1 33 -3.2856531441211700e-02</internalNodes>
          <leafValues>
            7.3215270042419434e-01 -2.2834475338459015e-01</leafValues></_>
        <_>
          <internalNodes>
            0 -1 78 3.2319017918780446e-05</internalNodes>
          <leafValues>
            -3.7558400630950928e-01 4.6230244636535645e-01</leafValues></_>
        <_>
          <internalNodes>
            0 -1 27 4.2496260255575180e-02</internalNodes>
          <leafValues>
            1.8972966074943542e-01 -9.5150810480117798e-01</leafValues></_>
        <_>
          <internalNodes>
            0 -1 102 2.3524439893662930e-03</internalNodes>
          <leafValues>
            1.6692094504833221e-01 -8.0414992570877075e-01</leafValues></_>
        <_>
          <internalNodes>
            0 -1 53 -1.8800597899826244e-05</internalNodes>
          <leafValues>
            3.1224831938743591e-01 -5.5437511205673218e-01</leafValues></_>
        <_>
          <internalNodes>
            0 -1 101 -3.1737494282424450e-03</internalNodes>
          <leafValues>
            -7.5973755121231079e-01 2.1375471353530884e-01</leafValues></_>
        <_>
          <internalNodes>
            0 -1 52 -8.2323588430881500e-03</internalNodes>
          <leafValues>
            -9.6010631322860718e-01 1.3168859481811523e-01</leafValues></_>
        <_>
          <internalNodes>
            0 -1 79 7.4124382808804512e-04</internalNodes>
          <leafValues>
            -2.5965586304664612e-01 7.6443195343017578e-01</leafValues></_></weakClassifiers></_>
    <!-- stage 6 -->
    <_>
      <maxWeakCount>13</maxWeakCount>
      <stageThreshold>-8.6928904056549072e-01</stageThreshold>
      <weakClassifiers>
        <_>
          <internalNodes>
            0 -1 9 -1.7664931714534760e-02</internalNodes>
          <leafValues>
            2.4257425963878632e-01 -7.3448276519775391e-01</leafValues></_>
        <_>
          <internalNodes>
            0 -1 17 1.4148809015750885e-01</internalNodes>
          <leafValues>
            -4.1867923736572266e-01 3.6028584837913513e-01</leafValues></_>
        <_>
          <internalNodes>
            0 -1 42 -4.8357849009335041e-03</internalNodes>
          <leafValues>
            5.4422688484191895e-01 -3.1312757730484009e-01</leafValues></_>
        <_>
          <internalNodes>
            0 -1 80 -9.2842458980157971e-04</internalNodes>
          <leafValues>
            4.9492952227592468e-01 -3.0605772137641907e-01</leafValues></_>
        <_>
          <internalNodes>
            0 -1 10 -8.5044448496773839e-04</internalNodes>
          <leafValues>
            -7.0864194631576538e-01 2.3608523607254028e-01</leafValues></_>
        <_>
          <internalNodes>
            0 -1 72 -4.2520856368355453e-04</internalNodes>
          <leafValues>
            6.3577377796173096e-01 -2.9041850566864014e-01</leafValues></_>
        <_>
          <internalNodes>
            0 -1 48 2.6234816759824753e-02</internalNodes>
          <leafValues>
            1.8713359534740448e-01 -9.3157124519348145e-01</leafValues></_>
        <_>
          <internalNodes>
            0 -1 104 2.7096699923276901e-03</internalNodes>
          <leafValues>
            1.2000354379415512e-01 -8.5049945116043091e-01</leafValues></_>
        <_>
          <internalNodes>
            0 -1 31 5.5046230554580688e-03</internalNodes>
          <leafValues>
            1.4312744140625000e-01 -8.0983513593673706e-01</leafValues></_>
        <_>
          <internalNodes>
            0 -1 22 -2.3647088091820478e-03</internalNodes>
          <leafValues>
            -6.2165158987045288e-01 2.6782071590423584e-01</leafValues></_>
        <_>
          <internalNodes>
            0 -1 82 -6.0698087327182293e-04</internalNodes>
          <leafValues>
            5.8105427026748657e-01 -3.0625921487808228e-01</leafValues></_>
        <_>
          <internalNodes>
            0 -1 77 -8.0901605542749166e-04</internalNodes>
          <leafValues>
            5.0098609924316406e-01 -2.8236246109008789e-01</leafValues></_>
        <_>
          <internalNodes>
            0 -1 65 5.7803746312856674e-04</internalNodes>
          <leafValues>
            1.9270272552967072e-01 -8.4079128503799438e-01</leafValues></_></weakClassifiers></_>
    <!-- stage 7 -->
    <_>
      <maxWeakCount>12</maxWeakCount>
      <stageThreshold>-9.9037182331085205e-01</stageThreshold>
      <weakClassifiers>
        <_>
          <internalNodes>
            0 -1 15 -1.0138368606567383e-01</internalNodes>
          <leafValues>
            3.4844192862510681e-01 -7.1473848819732666e-01</leafValues></_>
        <_>
          <internalNodes>
            0 -1 19 3.4684936981648207e-03</internalNodes>
          <leafValues>
            1.3702607154846191e-01 -8.0615770816802979e-01</leafValues></_>
        <_>
          <internalNodes>
            0 -1 54 2.1825432777404785e-02</internalNodes>
          <leafValues>
            -3.8727095723152161e-01 4.2866587638854980e-01</leafValues></_>
        <_>
          <internalNodes>
            0 -1 74 -1.7340405611321330e-04</internalNodes>
          <leafValues>
            3.8856992125511169e-01 -3.9978456497192383e-01</leafValues></_>
        <_>
          <internalNodes>
            0 -1 51 3.2602444291114807e-02</internalNodes>
          <leafValues>
            1.8091215193271637e-01 -9.3031412363052368e-01</leafValues></_>
        <_>
          <internalNodes>
            0 -1 68 1.4267771621234715e-04</internalNodes>
          <leafValues>
            -3.8650992512702942e-01 3.7755209207534790e-01</leafValues></_>
        <_>
          <internalNodes>
            0 -1 60 8.8475458323955536e-04</internalNodes>
          <leafValues>
            1.9416935741901398e-01 -7.0901626348495483e-01</leafValues></_>
        <_>
          <internalNodes>
            0 -1 43 -1.1220129206776619e-02</internalNodes>
          <leafValues>
            3.2086077332496643e-01 -4.4912475347518921e-01</leafValues></_>
        <_>
          <internalNodes>
            0 -1 5 9.4853661721572280e-04</internalNodes>
          <leafValues>
            2.2397796809673309e-01 -7.3825925588607788e-01</leafValues></_>
        <_>
          <internalNodes>
            0 -1 62 -8.7442118674516678e-03</internalNodes>
          <leafValues>
            -9.4527357816696167e-01 1.5133450925350189e-01</leafValues></_>
        <_>
          <internalNodes>
            0 -1 41 -1.5788681339472532e-03</internalNodes>
          <leafValues>
            2.8577890992164612e-01 -4.7105705738067627e-01</leafValues></_>
        <_>
          <internalNodes>
            0 -1 50 9.0772937983274460e-03</internalNodes>
          <leafValues>
            1.4233942329883575e-01 -8.7643039226531982e-01</leafValues></_></weakClassifiers></_>
    <!-- stage 8 -->
    <_>
      <maxWeakCount>13</maxWeakCount>
      <stageThreshold>-6.6765528917312622e-01</stageThreshold>
      <weakClassifiers>
        <_>
          <internalNodes>
            0 -1 28 4.1342452168464661e-03</internalNodes>
          <leafValues>
            -6.2500000000000000e-01 2.3787528276443481e-01</leafValues></_>
        <_>
          <internalNodes>
            0 -1 70 2.7623571455478668e-02</internalNodes>
          <leafValues>
            -4.9373608827590942e-01 2.7405133843421936e-01</leafValues></_>
        <_>
          <internalNodes>
            0 -1 71 1.6535140573978424e-02</internalNodes>
          <leafValues>
            -2.2200965881347656e-01 6.7190772294998169e-01</leafValues></_>
        <_>
          <internalNodes>
            0 -1 92 -3.9872439811006188e-04</internalNodes>
          <leafValues>
            -7.5588798522949219e-01 1.9668108224868774e-01</leafValues></_>
        <_>
          <internalNodes>
            0 -1 63 -3.6680759512819350e-04</internalNodes>
          <leafValues>
            5.4936242103576660e-01 -3.2383206486701965e-01</leafValues></_>
        <_>
          <internalNodes>
            0 -1 21 -1.2765265637426637e-05</internalNodes>
          <leafValues>
            2.8664648532867432e-01 -5.5307745933532715e-01</leafValues></_>
        <_>
          <internalNodes>
            0 -1 44 -1.6417304053902626e-02</internalNodes>
          <leafValues>
            -6.8344885110855103e-01 1.8559853732585907e-01</leafValues></_>
        <_>
          <internalNodes>
            0 -1 96 2.3022083041723818e-04</internalNodes>
          <leafValues>
            2.1454299986362457e-01 -6.4983606338500977e-01</leafValues></_>
        <_>
          <internalNodes>
            0 -1 76 -2.5078319013118744e-03</internalNodes>
          <leafValues>
            2.7623060345649719e-01 -4.3581604957580566e-01</leafValues></_>
        <_>
          <internalNodes>
            0 -1 38 -1.7142750322818756e-02</internalNodes>
          <leafValues>
            5.8529204130172729e-01 -2.1174275875091553e-01</leafValues></_>
        <_>
          <internalNodes>
            0 -1 95 -2.2578267380595207e-03</internalNodes>
          <leafValues>
            8.7086719274520874e-01 -1.9566752016544342e-01</leafValues></_>
        <_>
          <internalNodes>
            0 -1 91 5.4103443399071693e-03</internalNodes>
          <leafValues>
            -4.1719686985015869e-01 3.9123272895812988e-01</leafValues></_>
        <_>
          <internalNodes>
            0 -1 13 9.5610199496150017e-03</internalNodes>
          <leafValues>
            -1.9616831839084625e-01 7.4789935350418091e-01</leafValues></_></weakClassifiers></_>
    <!-- stage 9 -->
    <_>
      <maxWeakCount>12</maxWeakCount>
      <stageThreshold>-4.4164511561393738e-01</stageThreshold>
      <weakClassifiers>
        <_>
          <internalNodes>
            0 -1 7 -3.0748628079891205e-02</internalNodes>
          <leafValues>
            6.7721521854400635e-01 -2.2222222387790680e-01</leafValues></_>
        <_>
          <internalNodes>
            0 -1 69 -6.7012594081461430e-04</internalNodes>
          <leafValues>
            5.1627779006958008e-01 -2.7434557676315308e-01</leafValues></_>
        <_>
          <internalNodes>
            0 -1 47 -2.3078050464391708e-02</internalNodes>
          <leafValues>
            4.2694336175918579e-01 -3.9100962877273560e-01</leafValues></_>
        <_>
          <internalNodes>
            0 -1 29 -4.5275111915543675e-04</internalNodes>
          <leafValues>
            4.9032932519912720e-01 -3.2104057073593140e-01</leafValues></_>
        <_>
          <internalNodes>
            0 -1 88 7.2738365270197392e-03</internalNodes>
          <leafValues>
            2.4079704284667969e-01 -6.9896769523620605e-01</leafValues></_>
        <_>
          <internalNodes>
            0 -1 30 -5.8009114582091570e-04</internalNodes>
          <leafValues>
            -5.7062160968780518e-01 2.7725538611412048e-01</leafValues></_>
        <_>
          <internalNodes>
            0 -1 94 -7.0711149601265788e-04</internalNodes>
          <leafValues>
            4.7935417294502258e-01 -3.4188106656074524e-01</leafValues></_>
        <_>
          <internalNodes>
            0 -1 35 -8.7247288320213556e-04</internalNodes>
          <leafValues>
            -6.2157380580902100e-01 3.2308620214462280e-01</leafValues></_>
        <_>
          <internalNodes>
            0 -1 87 -2.6916162460111082e-04</internalNodes>
          <leafValues>
            -8.0983233451843262e-01 2.2816942632198334e-01</leafValues></_>
        <_>
          <internalNodes>
            0 -1 20 3.7434414844028652e-04</internalNodes>
          <leafValues>
            -6.7231357097625732e-01 3.2630845904350281e-01</leafValues></_>
        <_>
          <internalNodes>
            0 -1 39 -4.8743688967078924e-04</internalNodes>
          <leafValues>
            3.2270917296409607e-01 -5.4102182388305664e-01</leafValues></_>
        <_>
          <internalNodes>
            0 -1 34 2.4434324586763978e-04</internalNodes>
          <leafValues>
            3.8191297650337219e-01 -4.1455239057540894e-01</leafValues></_></weakClassifiers></_></stages>
  <features>
    <_>
      <rects>
        <_>
          0 0 9 2 -1.</_>
        <_>
          3 0 3 2 3.</_></rects>
      <tilted>0</tilted></_>
    <_>
      <rects>
        <_>
          0 7 1 10 -1.</_>
        <_>
          0 12 1 5 2.</_></rects>
      <tilted>0</tilted></_>
    <_>
      <rects>
        <_>
          0 7 1 12 -1.</_>
        <_>
          0 13 1 6 2.</_></rects>
      <tilted>0</tilted></_>
    <_>
      <rects>
        <_>
          0 8 3 3 -1.</_>
        <_>
          0 9 3 1 3.</_></rects>
      <tilted>0</tilted></_>
    <_>
      <rects>
        <_>
          0 8 16 11 -1.</_>
        <_>
          8 8 8 11 2.</_></rects>
      <tilted>0</tilted></_>
    <_>
      <rects>
        <_>
          0 10 1 10 -1.</_>
        <_>
          0 15 1 5 2.</_></rects>
      <tilted>0</tilted></_>
    <_>
      <rects>
        <_>
          0 12 8 10 -1.</_>
        <_>
          4 12 4 10 2.</_></rects>
      <tilted>0</tilted></_>
    <_>
      <rects>
        <_>
          0 13 8 8 -1.</_>
        <_>
          4 13 4 8 2.</_></rects>
      <tilted>0</tilted></_>
    <_>
      <rects>
        <_>
          0 14 6 5 -1.</_>
        <_>
          3 14 3 5 2.</_></rects>
      <tilted>0</tilted></_>
    <_>
      <rects>
        <_>
          0 14 6 6 -1.</_>
        <_>
          3 14 3 6 2.</_></rects>
      <tilted>0</tilted></_>
    <_>
      <rects>
        <_>
          0 18 1 9 -1.</_>
        <_>
          0 21 1 3 3.</_></rects>
      <tilted>0</tilted></_>
    <_>
      <rects>
        <_>
          0 23 1 6 -1.</_>
        <_>
          0 25 1 2 3.</_></rects>
      <tilted>0</tilted></_>
    <_>
      <rects>
        <_>
          1 5 8 23 -1.</_>
        <_>
          5 5 4 23 2.</_></rects>
      <tilted>0</tilted></_>
    <_>
      <rects>
        <_>
          1 7 12 3 -1.</_>
        <_>
          7 7 6 3 2.</_></rects>
      <tilted>0</tilted></_>
    <_>
      <rects>
        <_>
          1 7 18 5 -1.</_>
        <_>
          7 7 6 5 3.</_></rects>
      <tilted>0</tilted></_>
    <_>
      <rects>
        <_>
          2 0 25 12 -1.</_>
        <_>
          2 6 25 6 2.</_></rects>
      <tilted>0</tilted></_>
    <_>
      <rects>
        <_>
          2 1 2 1 -1.</_>
        <_>
          3 1 1 1 2.</_></rects>
      <tilted>0</tilted></_>
    <_>
      <rects>
        <_>
          2 18 29 14 -1.</_>
        <_>
          2 25 29 7 2.</_></rects>
      <tilted>0</tilted></_>
    <_>
      <rects>
        <_>
          2 30 4 2 -1.</_>
        <_>
          2 30 2 1 2.</_>
        <_>
          4 31 2 1 2.</_></rects>
      <tilted>0</tilted></_>
    <_>
      <rects>
        <_>
          2 31 24 1 -1.</_>
        <_>
          10 31 8 1 3.</_></rects>
      <tilted>0</tilted></_>
    <_>
      <rects>
        <_>
          3 13 12 5 -1.</_>
        <_>
          9 13 6 5 2.</_></rects>
      <tilted>0</tilted></_>
    <_>
      <rects>
        <_>
          3 17 6 1 -1.</_>
        <_>
          5 17 2 1 3.</_></rects>
      <tilted>0</tilted></_>
    <_>
      <rects>
        <_>
          4 0 24 1 -1.</_>
        <_>
          16 0 12 1 2.</_></rects>
      <tilted>0</tilted></_>
    <_>
      <rects>
        <_>
          4 1 9 1 -1.</_>
        <_>
          7 1 3 1 3.</_></rects>
      <tilted>0</tilted></_>
    <_>
      <rects>
        <_>
          5 1 3 1 -1.</_>
        <_>
          6 1 1 1 3.</_></rects>
      <tilted>0</tilted></_>
    <_>
      <rects>
        <_>
          5 7 14 4 -1.</_>
        <_>
          5 7 7 2 2.</_>
        <_>
          12 9 7 2 2.</_></rects>
      <tilted>0</tilted></_>
    <_>
      <rects>
        <_>
          5 13 10 5 -1.</_>
        <_>
          10 13 5 5 2.</_></rects>
      <tilted>0</tilted></_>
    <_>
      <rects>
        <_>
          5 15 24 4 -1.</_>
        <_>
          13 15 8 4 3.</_></rects>
      <tilted>0</tilted></_>
    <_>
      <rects>
        <_>
          6 5 6 12 -1.</_>
        <_>
          6 5 3 6 2.</_>
        <_>
          9 11 3 6 2.</_></rects>
      <tilted>0</tilted></_>
    <_>
      <rects>
        <_>
          6 16 9 1 -1.</_>
        <_>
          9 16 3 1 3.</_></rects>
      <tilted>0</tilted></_>
    <_>
      <rects>
        <_>
          6 28 6 2 -1.</_>
        <_>
          8 28 2 2 3.</_></rects>
      <tilted>0</tilted></_>
    <_>
      <rects>
        <_>
          7 0 24 1 -1.</_>
        <_>
          19 0 12 1 2.</_></rects>
      <tilted>0</tilted></_>
    <_>
      <rects>
        <_>
          7 0 14 8 -1.</_>
        <_>
          7 4 14 4 2.</_></rects>
      <tilted>0</tilted></_>
    <_>
      <rects>
        <_>
          7 13 6 15 -1.</_>
        <_>
          7 18 6 5 3.</_></rects>
      <tilted>0</tilted></_>
    <_>
      <rects>
        <_>
          7 15 6 1 -1.</_>
        <_>
          9 15 2 1 3.</_></rects>
      <tilted>0</tilted></_>
    <_>
      <rects>
        <_>
          7 31 18 1 -1.</_>
        <_>
          13 31 6 1 3.</_></rects>
      <tilted>0</tilted></_>
    <_>
      <rects>
        <_>
          8 22 17 10 -1.</_>
        <_>
          8 27 17 5 2.</_></rects>
      <tilted>0</tilted></_>
    <_>
      <rects>
        <_>
          9 0 13 8 -1.</_>
        <_>
          9 4 13 4 2.</_></rects>
      <tilted>0</tilted></_>
    <_>
      <rects>
        <_>
          9 3 3 18 -1.</_>
        <_>
          9 9 3 6 3.</_></rects>
      <tilted>0</tilted></_>
    <_>
      <rects>
        <_>
          9 13 6 2 -1.</_>
        <_>
          11 13 2 2 3.</_></rects>
      <tilted>0</tilted></_>
    <_>
      <rects>
        <_>
          10 0 11 6 -1.</_>
        <_>
          10 3 11 3 2.</_></rects>
      <tilted>0</tilted></_>
    <_>
      <rects>
        <_>
          10 4 6 11 -1.</_>
        <_>
          12 4 2 11 3.</_></rects>
      <tilted>0</tilted></_>
    <_>
      <rects>
        <_>
          10 10 8 6 -1.</_>
        <_>
          10 12 8 2 3.</_></rects>
      <tilted>0</tilted></_>
    <_>
      <rects>
        <_>
          10 14 13 10 -1.</_>
        <_>
          10 19 13 5 2.</_></rects>
      <tilted>0</tilted></_>
    <_>
      <rects>
        <_>
          11 13 18 6 -1.</_>
        <_>
          17 13 6 6 3.</_></rects>
      <tilted>0</tilted></_>
    <_>
      <rects>
        <_>
          11 24 11 8 -1.</_>
        <_>
          11 28 11 4 2.</_></rects>
      <tilted>0</tilted></_>
    <_>
      <rects>
        <_>
          11 26 9 6 -1.</_>
        <_>
          11 29 9 3 2.</_></rects>
      <tilted>0</tilted></_>
    <_>
      <rects>
        <_>
          12 0 9 20 -1.</_>
        <_>
          12 10 9 10 2.</_></rects>
      <tilted>0</tilted></_>
    <_>
      <rects>
        <_>
          12 0 20 18 -1.</_>
        <_>
          12 0 10 9 2.</_>
        <_>
          22 9 10 9 2.</_></rects>
      <tilted>0</tilted></_>
    <_>
      <rects>
        <_>
          12 4 7 12 -1.</_>
        <_>
          12 8 7 4 3.</_></rects>
      <tilted>0</tilted></_>
    <_>
      <rects>
        <_>
          12 12 5 8 -1.</_>
        <_>
          12 16 5 4 2.</_></rects>
      <tilted>0</tilted></_>
    <_>
      <rects>
        <_>
          12 12 9 12 -1.</_>
        <_>
          12 16 9 4 3.</_></rects>
      <tilted>0</tilted></_>
    <_>
      <rects>
        <_>
          12 14 6 5 -1.</_>
        <_>
          15 14 3 5 2.</_></rects>
      <tilted>0</tilted></_>
    <_>
      <rects>
        <_>
          12 21 2 6 -1.</_>
        <_>
          12 23 2 2 3.</_></rects>
      <tilted>0</tilted></_>
    <_>
      <rects>
        <_>
          12 26 8 6 -1.</_>
        <_>
          12 29 8 3 2.</_></rects>
      <tilted>0</tilted></_>
    <_>
      <rects>
        <_>
          13 0 5 6 -1.</_>
        <_>
          13 3 5 3 2.</_></rects>
      <tilted>0</tilted></_>
    <_>
      <rects>
        <_>
          13 4 14 8 -1.</_>
        <_>
          13 4 7 4 2.</_>
        <_>
          20 8 7 4 2.</_></rects>
      <tilted>0</tilted></_>
    <_>
      <rects>
        <_>
          13 17 2 2 -1.</_>
        <_>
          13 17 1 1 2.</_>
        <_>
          14 18 1 1 2.</_></rects>
      <tilted>0</tilted></_>
    <_>
      <rects>
        <_>
          13 23 3 6 -1.</_>
        <_>
          13 25 3 2 3.</_></rects>
      <tilted>0</tilted></_>
    <_>
      <rects>
        <_>
          13 31 3 1 -1.</_>
        <_>
          14 31 1 1 3.</_></rects>
      <tilted>0</tilted></_>
    <_>
      <rects>
        <_>
          13 31 9 1 -1.</_>
        <_>
          16 31 3 1 3.</_></rects>
      <tilted>0</tilted></_>
    <_>
      <rects>
        <_>
          14 11 3 3 -1.</_>
        <_>
          15 11 1 3 3.</_></rects>
      <tilted>0</tilted></_>
    <_>
      <rects>
        <_>
          14 12 4 8 -1.</_>
        <_>
          14 16 4 4 2.</_></rects>
      <tilted>0</tilted></_>
    <_>
      <rects>
        <_>
          14 16 2 1 -1.</_>
        <_>
          15 16 1 1 2.</_></rects>
      <tilted>0</tilted></_>
    <_>
      <rects>
        <_>
          14 17 4 6 -1.</_>
        <_>
          14 20 4 3 2.</_></rects>
      <tilted>0</tilted></_>
    <_>
      <rects>
        <_>
          14 22 5 2 -1.</_>
        <_>
          14 23 5 1 2.</_></rects>
      <tilted>0</tilted></_>
    <_>
      <rects>
        <_>
          15 10 3 14 -1.</_>
        <_>
          16 10 1 14 3.</_></rects>
      <tilted>0</tilted></_>
    <_>
      <rects>
        <_>
          15 11 3 3 -1.</_>
        <_>
          16 11 1 3 3.</_></rects>
      <tilted>0</tilted></_>
    <_>
      <rects>
        <_>
          15 16 1 2 -1.</_>
        <_>
          15 17 1 1 2.</_></rects>
      <tilted>0</tilted></_>
    <_>
      <rects>
        <_>
          15 18 6 5 -1.</_>
        <_>
          17 18 2 5 3.</_></rects>
      <tilted>0</tilted></_>
    <_>
      <rects>
        <_>
          16 1 16 8 -1.</_>
        <_>
          24 1 8 8 2.</_></rects>
      <tilted>0</tilted></_>
    <_>
      <rects>
        <_>
          16 2 2 15 -1.</_>
        <_>
          16 7 2 5 3.</_></rects>
      <tilted>0</tilted></_>
    <_>
      <rects>
        <_>
          16 14 1 3 -1.</_>
        <_>
          16 15 1 1 3.</_></rects>
      <tilted>0</tilted></_>
    <_>
      <rects>
        <_>
          16 15 1 3 -1.</_>
        <_>
          16 16 1 1 3.</_></rects>
      <tilted>0</tilted></_>
    <_>
      <rects>
        <_>
          16 18 1 6 -1.</_>
        <_>
          16 20 1 2 3.</_></rects>
      <tilted>0</tilted></_>
    <_>
      <rects>
        <_>
          17 0 4 10 -1.</_>
        <_>
          17 5 4 5 2.</_></rects>
      <tilted>0</tilted></_>
    <_>
      <rects>
        <_>
          17 4 6 24 -1.</_>
        <_>
          19 4 2 24 3.</_></rects>
      <tilted>0</tilted></_>
    <_>
      <rects>
        <_>
          17 9 1 6 -1.</_>
        <_>
          17 11 1 2 3.</_></rects>
      <tilted>0</tilted></_>
    <_>
      <rects>
        <_>
          17 13 1 2 -1.</_>
        <_>
          17 14 1 1 2.</_></rects>
      <tilted>0</tilted></_>
    <_>
      <rects>
        <_>
          17 13 2 2 -1.</_>
        <_>
          17 13 1 1 2.</_>
        <_>
          18 14 1 1 2.</_></rects>
      <tilted>0</tilted></_>
    <_>
      <rects>
        <_>
          17 15 6 1 -1.</_>
        <_>
          19 15 2 1 3.</_></rects>
      <tilted>0</tilted></_>
    <_>
      <rects>
        <_>
          18 31 12 1 -1.</_>
        <_>
          22 31 4 1 3.</_></rects>
      <tilted>0</tilted></_>
    <_>
      <rects>
        <_>
          19 13 1 3 -1.</_>
        <_>
          19 14 1 1 3.</_></rects>
      <tilted>0</tilted></_>
    <_>
      <rects>
        <_>
          21 11 10 14 -1.</_>
        <_>
          26 11 5 14 2.</_></rects>
      <tilted>0</tilted></_>
    <_>
      <rects>
        <_>
          22 7 10 23 -1.</_>
        <_>
          27 7 5 23 2.</_></rects>
      <tilted>0</tilted></_>
    <_>
      <rects>
        <_>
          24 11 8 11 -1.</_>
        <_>
          28 11 4 11 2.</_></rects>
      <tilted>0</tilted></_>
    <_>
      <rects>
        <_>
          25 14 1 18 -1.</_>
        <_>
          25 23 1 9 2.</_></rects>
      <tilted>0</tilted></_>
    <_>
      <rects>
        <_>
          26 4 4 1 -1.</_>
        <_>
          28 4 2 1 2.</_></rects>
      <tilted>0</tilted></_>
    <_>
      <rects>
        <_>
          26 10 2 22 -1.</_>
        <_>
          27 10 1 22 2.</_></rects>
      <tilted>0</tilted></_>
    <_>
      <rects>
        <_>
          26 12 6 9 -1.</_>
        <_>
          29 12 3 9 2.</_></rects>
      <tilted>0</tilted></_>
    <_>
      <rects>
        <_>
          26 13 6 7 -1.</_>
        <_>
          29 13 3 7 2.</_></rects>
      <tilted>0</tilted></_>
    <_>
      <rects>
        <_>
          26 15 5 16 -1.</_>
        <_>
          26 23 5 8 2.</_></rects>
      <tilted>0</tilted></_>
    <_>
      <rects>
        <_>
          26 29 4 1 -1.</_>
        <_>
          28 29 2 1 2.</_></rects>
      <tilted>0</tilted></_>
    <_>
      <rects>
        <_>
          27 6 4 4 -1.</_>
        <_>
          27 6 2 2 2.</_>
        <_>
          29 8 2 2 2.</_></rects>
      <tilted>0</tilted></_>
    <_>
      <rects>
        <_>
          28 11 1 9 -1.</_>
        <_>
          28 14 1 3 3.</_></rects>
      <tilted>0</tilted></_>
    <_>
      <rects>
        <_>
          28 13 2 10 -1.</_>
        <_>
          29 13 1 10 2.</_></rects>
      <tilted>0</tilted></_>
    <_>
      <rects>
        <_>
          28 23 4 2 -1.</_>
        <_>
          28 24 4 1 2.</_></rects>
      <tilted>0</tilted></_>
    <_>
      <rects>
        <_>
          29 3 2 8 -1.</_>
        <_>
          29 7 2 4 2.</_></rects>
      <tilted>0</tilted></_>
    <_>
      <rects>
        <_>
          29 4 2 2 -1.</_>
        <_>
          29 4 1 1 2.</_>
        <_>
          30 5 1 1 2.</_></rects>
      <tilted>0</tilted></_>
    <_>
      <rects>
        <_>
          30 0 2 15 -1.</_>
        <_>
          30 5 2 5 3.</_></rects>
      <tilted>0</tilted></_>
    <_>
      <rects>
        <_>
          30 21 2 9 -1.</_>
        <_>
          30 24 2 3 3.</_></rects>
      <tilted>0</tilted></_>
    <_>
      <rects>
        <_>
          31 3 1 18 -1.</_>
        <_>
          31 12 1 9 2.</_></rects>
      <tilted>0</tilted></_>
    <_>
      <rects>
        <_>
          31 4 1 18 -1.</_>
        <_>
          31 13 1 9 2.</_></rects>
      <tilted>0</tilted></_>
    <_>
      <rects>
        <_>
          31 7 1 12 -1.</_>
        <_>
          31 11 1 4 3.</_></rects>
      <tilted>0</tilted></_>
    <_>
      <rects>
        <_>
          31 18 1 14 -1.</_>
        <_>
          31 25 1 7 2.</_></rects>
      <tilted>0</tilted></_></features></cascade>
</opencv_storage>
