<?xml version="1.0"?>
<opencv_storage>
<!-- Created using Computer Vision System Toolbox(tm) for MATLAB(R) -->
<!-- Version 9.2.0.556344 (R2017a) -->
<!-- Compatible with OpenCV 3.1 -->
<cascade>
  <stageType>BOOST</stageType>
  <featureType>LBP</featureType>
  <height>32</height>
  <width>32</width>
  <stageParams>
    <boostType>GAB</boostType>
    <minHitRate>9.9500000476837158e-01</minHitRate>
    <maxFalseAlarm>2.0000000298023224e-01</maxFalseAlarm>
    <weightTrimRate>9.4999999999999996e-01</weightTrimRate>
    <maxDepth>1</maxDepth>
    <maxWeakCount>100</maxWeakCount></stageParams>
  <featureParams>
    <maxCatCount>256</maxCatCount>
    <featSize>1</featSize></featureParams>
  <stageNum>11</stageNum>
  <stages>
    <!-- stage 0 -->
    <_>
      <maxWeakCount>4</maxWeakCount>
      <stageThreshold>-4.2470261454582214e-01</stageThreshold>
      <weakClassifiers>
        <_>
          <internalNodes>
            0 -1 6 -142610689 -484194013 1209090819 -209464313
            -268222389 -1602174976 -793029853 -297129</internalNodes>
          <leafValues>
            -8.4437435865402222e-01 7.9166668653488159e-01</leafValues></_>
        <_>
          <internalNodes>
            0 -1 22 -971513087 -81988303 1107411058 -548040444
            -641215607 -207910520 -250641280 -4457489</internalNodes>
          <leafValues>
            -9.2005258798599243e-01 6.4756864309310913e-01</leafValues></_>
        <_>
          <internalNodes>
            0 -1 46 -405802499 780898651 -536788717 87135495 -636751464
            134449219 -1021471835 -1207959553</internalNodes>
          <leafValues>
            -8.6661213636398315e-01 6.9262808561325073e-01</leafValues></_>
        <_>
          <internalNodes>
            0 -1 9 -211456145 -10546213 22117791 2134737179 -624039697
            -284194550 -72435269 6012411</internalNodes>
          <leafValues>
            -9.0256583690643311e-01 6.3871520757675171e-01</leafValues></_></weakClassifiers></_>
    <!-- stage 1 -->
    <_>
      <maxWeakCount>4</maxWeakCount>
      <stageThreshold>-2.0456506311893463e-01</stageThreshold>
      <weakClassifiers>
        <_>
          <internalNodes>
            0 -1 5 2106793471 -3058925 2101424311 -6089057 1352359871
            2073796771 -99898389 -288261</internalNodes>
          <leafValues>
            -8.1780105829238892e-01 7.4766355752944946e-01</leafValues></_>
        <_>
          <internalNodes>
            0 -1 49 -1 -268435969 -1 -889454913 -32921 -268435457 -34825
            -17</internalNodes>
          <leafValues>
            -6.9464302062988281e-01 7.7150571346282959e-01</leafValues></_>
        <_>
          <internalNodes>
            0 -1 10 -67195969 -372453357 -384607394 -116215790 -82064723
            -2144599275 -871764276 -265574</internalNodes>
          <leafValues>
            -8.4320354461669922e-01 6.5649545192718506e-01</leafValues></_>
        <_>
          <internalNodes>
            0 -1 17 -792169003 -6942453 -1845325543 -355314017
            -460784631 -104562678 1775189871 -3216501</internalNodes>
          <leafValues>
            -7.9856276512145996e-01 6.8493378162384033e-01</leafValues></_></weakClassifiers></_>
    <!-- stage 2 -->
    <_>
      <maxWeakCount>4</maxWeakCount>
      <stageThreshold>-2.9073336720466614e-01</stageThreshold>
      <weakClassifiers>
        <_>
          <internalNodes>
            0 -1 3 -2129921 -715696865 1551984601 -24226609 2079219583
            1921728842 1566263247 -1056793</internalNodes>
          <leafValues>
            -8.7082403898239136e-01 6.6185569763183594e-01</leafValues></_>
        <_>
          <internalNodes>
            0 -1 19 2031441695 -36455 -707897353 -4354569 -175538177
            -272912949 -1085605443 -658834469</internalNodes>
          <leafValues>
            -7.5645565986633301e-01 7.6540100574493408e-01</leafValues></_>
        <_>
          <internalNodes>
            0 -1 36 993783791 1427982428 1416675769 -653143887
            -285148437 -238552572 -855516424 -8524931</internalNodes>
          <leafValues>
            -7.9467815160751343e-01 6.6526162624359131e-01</leafValues></_>
        <_>
          <internalNodes>
            0 -1 2 -68944129 -874585394 -1861794317 -61419825 2097937279
            -886603263 -215259790 -8390825</internalNodes>
          <leafValues>
            -8.1802618503570557e-01 6.7128473520278931e-01</leafValues></_></weakClassifiers></_>
    <!-- stage 3 -->
    <_>
      <maxWeakCount>4</maxWeakCount>
      <stageThreshold>-3.3746546506881714e-01</stageThreshold>
      <weakClassifiers>
        <_>
          <internalNodes>
            0 -1 27 -1084359713 762828267 -1933321387 1031402335
            -1145179653 -1343771751 -34997763 -5235</internalNodes>
          <leafValues>
            -8.4960716962814331e-01 6.0162603855133057e-01</leafValues></_>
        <_>
          <internalNodes>
            0 -1 48 -169346067 -1589383405 -507408109 -362036301
            -753992257 -926558573 -783029865 -1394868289</internalNodes>
          <leafValues>
            -7.8206479549407959e-01 6.0174119472503662e-01</leafValues></_>
        <_>
          <internalNodes>
            0 -1 37 1397743099 -76827621 318792795 -620150325 -267662133
            -1340897280 1544285167 -685769825</internalNodes>
          <leafValues>
            -7.2462475299835205e-01 7.1443009376525879e-01</leafValues></_>
        <_>
          <internalNodes>
            0 -1 7 -179831297 1968249751 -586819202 -1218981374 13488639
            47579462 562814126 -185609225</internalNodes>
          <leafValues>
            -8.0402958393096924e-01 6.6749274730682373e-01</leafValues></_></weakClassifiers></_>
    <!-- stage 4 -->
    <_>
      <maxWeakCount>4</maxWeakCount>
      <stageThreshold>-6.8176996707916260e-01</stageThreshold>
      <weakClassifiers>
        <_>
          <internalNodes>
            0 -1 0 -1378490369 -1152011941 -439034913 -14706419
            -1074859009 -4289607 -605487361 -177098379</internalNodes>
          <leafValues>
            -8.6405527591705322e-01 5.6116503477096558e-01</leafValues></_>
        <_>
          <internalNodes>
            0 -1 18 -1378664707 799757503 -586555906 2130155743
            2141784063 2077133743 -91706882 -90115859</internalNodes>
          <leafValues>
            -8.8827711343765259e-01 4.7933647036552429e-01</leafValues></_>
        <_>
          <internalNodes>
            0 -1 14 -495810443 -609010275 -1063333515 -614682484
            -403721748 -72103798 -263496 -67372294</internalNodes>
          <leafValues>
            -8.4507226943969727e-01 5.6269806623458862e-01</leafValues></_>
        <_>
          <internalNodes>
            0 -1 35 -1074118659 -78644961 -444234769 -46458193
            -491013189 -2270257 -504631873 -1928307312</internalNodes>
          <leafValues>
            -8.5528689622879028e-01 5.4802119731903076e-01</leafValues></_></weakClassifiers></_>
    <!-- stage 5 -->
    <_>
      <maxWeakCount>5</maxWeakCount>
      <stageThreshold>-1.0577273368835449e+00</stageThreshold>
      <weakClassifiers>
        <_>
          <internalNodes>
            0 -1 29 -706929185 -537585229 1124111423 1461388315
            -1987670898 -1144026982 -1625558273 -1143241477</internalNodes>
          <leafValues>
            -7.5921911001205444e-01 5.1843816041946411e-01</leafValues></_>
        <_>
          <internalNodes>
            0 -1 13 -320864257 -1719525593 -913666793 -1176668407
            -2105078113 -1147326427 -1364259429 -1411700197</internalNodes>
          <leafValues>
            -7.7520698308944702e-01 5.6774234771728516e-01</leafValues></_>
        <_>
          <internalNodes>
            0 -1 33 1561516767 -574413813 1380995289 2135147391
            -134178022 -187564008 -577544357 -11565415</internalNodes>
          <leafValues>
            -7.3580592870712280e-01 6.1324191093444824e-01</leafValues></_>
        <_>
          <internalNodes>
            0 -1 23 -988287065 -86354945 -982432644 -221852995
            -1175728208 -1087762272 -93282343 -5309778</internalNodes>
          <leafValues>
            -7.7310383319854736e-01 5.9455752372741699e-01</leafValues></_>
        <_>
          <internalNodes>
            0 -1 42 -798956311 -251166327 -1743506987 1963135445
            -225274198 -1740595200 -402297621 -9201521</internalNodes>
          <leafValues>
            -7.2500222921371460e-01 7.0527988672256470e-01</leafValues></_></weakClassifiers></_>
    <!-- stage 6 -->
    <_>
      <maxWeakCount>6</maxWeakCount>
      <stageThreshold>-6.0906720161437988e-01</stageThreshold>
      <weakClassifiers>
        <_>
          <internalNodes>
            0 -1 8 -262840321 -547975075 1581456287 -6875117 -1550992897
            -1081243511 -2003120709 -188184412</internalNodes>
          <leafValues>
            -8.2545453310012817e-01 3.9426523447036743e-01</leafValues></_>
        <_>
          <internalNodes>
            0 -1 15 -872173513 -749440292 380714239 -276560000
            -541873361 -101983847 -1853358195 -278645</internalNodes>
          <leafValues>
            -8.0105888843536377e-01 4.9976247549057007e-01</leafValues></_>
        <_>
          <internalNodes>
            0 -1 45 -81003285 -540081927 -452946639 -24508219
            -1990153541 -869785456 -1281234177 -610303793</internalNodes>
          <leafValues>
            -7.0158696174621582e-01 6.1821866035461426e-01</leafValues></_>
        <_>
          <internalNodes>
            0 -1 28 -785337633 -720138094 1091989624 1228511451
            -307066484 -1715076704 -1660569191 -274693</internalNodes>
          <leafValues>
            -7.1438974142074585e-01 6.2443643808364868e-01</leafValues></_>
        <_>
          <internalNodes>
            0 -1 32 -545033682 -605434763 458068317 -317645817
            -1727056467 -528711676 -1442119921 -37121869</internalNodes>
          <leafValues>
            -6.9601875543594360e-01 6.4799207448959351e-01</leafValues></_>
        <_>
          <internalNodes>
            0 -1 24 -1889275393 -2116591012 -499358996 -104631852
            1637151199 -263184120 -1718774497 -314549</internalNodes>
          <leafValues>
            -7.2992563247680664e-01 6.1203557252883911e-01</leafValues></_></weakClassifiers></_>
    <!-- stage 7 -->
    <_>
      <maxWeakCount>5</maxWeakCount>
      <stageThreshold>-1.0073328018188477e-01</stageThreshold>
      <weakClassifiers>
        <_>
          <internalNodes>
            0 -1 47 -12058625 -174619945 -1241394421 -758394077
            -1684294689 -129406841 -11929393 -924126993</internalNodes>
          <leafValues>
            -7.8642934560775757e-01 5.0826448202133179e-01</leafValues></_>
        <_>
          <internalNodes>
            0 -1 43 -1122642953 -2085094473 285479378 -1073935459
            -2145281845 163199361 -659830029 -1140868428</internalNodes>
          <leafValues>
            -7.8878384828567505e-01 4.8993939161300659e-01</leafValues></_>
        <_>
          <internalNodes>
            0 -1 20 -1475629505 -52923057 -779650758 -212838416
            -1073498531 -358899405 -35324076 -1</internalNodes>
          <leafValues>
            -8.6151152849197388e-01 4.6051263809204102e-01</leafValues></_>
        <_>
          <internalNodes>
            0 -1 4 -606350866 -842301248 -804286345 -620898097
            -1545792945 -1176119262 -8422297 -69210897</internalNodes>
          <leafValues>
            -7.9124480485916138e-01 5.4315960407257080e-01</leafValues></_>
        <_>
          <internalNodes>
            0 -1 40 -1185398540 -778893236 17264859 2068058579 25335946
            -2112781934 832086251 -1088153368</internalNodes>
          <leafValues>
            -7.6820498704910278e-01 5.7458245754241943e-01</leafValues></_></weakClassifiers></_>
    <!-- stage 8 -->
    <_>
      <maxWeakCount>6</maxWeakCount>
      <stageThreshold>-5.7438004016876221e-01</stageThreshold>
      <weakClassifiers>
        <_>
          <internalNodes>
            0 -1 1 712503261 -1591148411 1260756167 -274225141 336637135
            -1735687265 -748452889 -1818798603</internalNodes>
          <leafValues>
            -8.1132078170776367e-01 4.4194108247756958e-01</leafValues></_>
        <_>
          <internalNodes>
            0 -1 25 914651775 -168737577 -201132969 -116289101
            -1951941829 -928644089 -1044140387 -39703677</internalNodes>
          <leafValues>
            -7.4884557723999023e-01 5.2331602573394775e-01</leafValues></_>
        <_>
          <internalNodes>
            0 -1 21 -291649807 -800717069 92397776 -548090728 -804605771
            -544504793 67711035 -275787633</internalNodes>
          <leafValues>
            -7.8936511278152466e-01 5.1333487033843994e-01</leafValues></_>
        <_>
          <internalNodes>
            0 -1 38 -709962520 1365966979 1343953859 1553176589
            1778487950 -1744756524 1459821400 -2127174</internalNodes>
          <leafValues>
            -6.9180083274841309e-01 6.5077292919158936e-01</leafValues></_>
        <_>
          <internalNodes>
            0 -1 44 -438173969 238878731 -528203648 2047287864
            -1037371929 -1342142293 -117276529 -357648786</internalNodes>
          <leafValues>
            -6.5521216392517090e-01 6.7139601707458496e-01</leafValues></_>
        <_>
          <internalNodes>
            0 -1 50 -241577774 1102184520 1627466060 1891844251
            -2147308210 1091043464 570524290 -242484277</internalNodes>
          <leafValues>
            -7.2986721992492676e-01 6.5073400735855103e-01</leafValues></_></weakClassifiers></_>
    <!-- stage 9 -->
    <_>
      <maxWeakCount>5</maxWeakCount>
      <stageThreshold>5.6988841295242310e-01</stageThreshold>
      <weakClassifiers>
        <_>
          <internalNodes>
            0 -1 11 -599371301 -267124736 1359020046 143327232
            -461275005 -671055872 -938405760 974815744</internalNodes>
          <leafValues>
            -7.9268294572830200e-01 7.2093021869659424e-01</leafValues></_>
        <_>
          <internalNodes>
            0 -1 12 1087447185 1426108821 1048934 1392919036 -1329569767
            -134207461 146807178 -1459609176</internalNodes>
          <leafValues>
            -7.9859191179275513e-01 6.5160566568374634e-01</leafValues></_>
        <_>
          <internalNodes>
            0 -1 30 -788492263 701497600 -1827595965 520093708
            -1895521240 -1752625150 -2104487294 -1422747639</internalNodes>
          <leafValues>
            -7.0028960704803467e-01 7.4566721916198730e-01</leafValues></_>
        <_>
          <internalNodes>
            0 -1 39 -2129608668 1440743425 25170194 1091600401
            -200046390 419538433 -1971281720 34643971</internalNodes>
          <leafValues>
            -8.0692917108535767e-01 6.6941535472869873e-01</leafValues></_>
        <_>
          <internalNodes>
            0 -1 34 -1862064231 1094681034 -2139095039 1141047489
            268509728 -2121793532 -921608097 -746089246</internalNodes>
          <leafValues>
            -7.0411688089370728e-01 7.6115739345550537e-01</leafValues></_></weakClassifiers></_>
    <!-- stage 10 -->
    <_>
      <maxWeakCount>4</maxWeakCount>
      <stageThreshold>3.6693233251571655e-01</stageThreshold>
      <weakClassifiers>
        <_>
          <internalNodes>
            0 -1 16 134221863 285282437 8388689 402653185 335611976
            33619969 16385 149531</internalNodes>
          <leafValues>
            -9.0322577953338623e-01 8.5801219940185547e-01</leafValues></_>
        <_>
          <internalNodes>
            0 -1 41 -34407420 -279773315 2109060917 -3048065 267747319
            -285286831 1039267316 -280771316</internalNodes>
          <leafValues>
            -6.7754215002059937e-01 8.8094252347946167e-01</leafValues></_>
        <_>
          <internalNodes>
            0 -1 26 -749381676 -2117640484 302571260 -1157054695
            733698001 189759916 1507676637 -35730518</internalNodes>
          <leafValues>
            -6.8091475963592529e-01 9.0504270792007446e-01</leafValues></_>
        <_>
          <internalNodes>
            0 -1 31 -1100850593 -277654958 -1411771815 1529567871
            1869938376 -1894694760 -582 -1219494096</internalNodes>
          <leafValues>
            -6.9110757112503052e-01 8.7902104854583740e-01</leafValues></_></weakClassifiers></_></stages>
  <features>
    <_>
      <rect>
        0 0 8 3</rect></_>
    <_>
      <rect>
        0 3 4 5</rect></_>
    <_>
      <rect>
        0 10 3 4</rect></_>
    <_>
      <rect>
        0 10 3 7</rect></_>
    <_>
      <rect>
        0 14 2 2</rect></_>
    <_>
      <rect>
        0 25 10 2</rect></_>
    <_>
      <rect>
        1 2 2 9</rect></_>
    <_>
      <rect>
        1 8 10 6</rect></_>
    <_>
      <rect>
        3 0 9 2</rect></_>
    <_>
      <rect>
        4 2 9 3</rect></_>
    <_>
      <rect>
        4 6 8 6</rect></_>
    <_>
      <rect>
        5 0 5 10</rect></_>
    <_>
      <rect>
        5 6 7 5</rect></_>
    <_>
      <rect>
        6 2 6 10</rect></_>
    <_>
      <rect>
        6 11 7 5</rect></_>
    <_>
      <rect>
        7 9 5 4</rect></_>
    <_>
      <rect>
        8 0 8 3</rect></_>
    <_>
      <rect>
        8 13 5 2</rect></_>
    <_>
      <rect>
        8 26 6 2</rect></_>
    <_>
      <rect>
        9 0 7 3</rect></_>
    <_>
      <rect>
        9 6 5 5</rect></_>
    <_>
      <rect>
        9 6 6 7</rect></_>
    <_>
      <rect>
        9 8 5 5</rect></_>
    <_>
      <rect>
        9 12 5 4</rect></_>
    <_>
      <rect>
        10 10 3 4</rect></_>
    <_>
      <rect>
        10 10 4 3</rect></_>
    <_>
      <rect>
        10 11 3 3</rect></_>
    <_>
      <rect>
        10 23 7 3</rect></_>
    <_>
      <rect>
        11 12 3 2</rect></_>
    <_>
      <rect>
        11 13 3 2</rect></_>
    <_>
      <rect>
        11 15 5 2</rect></_>
    <_>
      <rect>
        12 11 3 2</rect></_>
    <_>
      <rect>
        12 11 3 3</rect></_>
    <_>
      <rect>
        12 12 3 2</rect></_>
    <_>
      <rect>
        12 13 2 3</rect></_>
    <_>
      <rect>
        13 1 2 2</rect></_>
    <_>
      <rect>
        13 9 2 5</rect></_>
    <_>
      <rect>
        13 12 2 3</rect></_>
    <_>
      <rect>
        13 15 2 2</rect></_>
    <_>
      <rect>
        13 17 5 3</rect></_>
    <_>
      <rect>
        13 27 1 1</rect></_>
    <_>
      <rect>
        14 12 3 4</rect></_>
    <_>
      <rect>
        14 15 2 2</rect></_>
    <_>
      <rect>
        14 21 5 3</rect></_>
    <_>
      <rect>
        15 11 2 3</rect></_>
    <_>
      <rect>
        15 12 2 3</rect></_>
    <_>
      <rect>
        23 8 3 8</rect></_>
    <_>
      <rect>
        24 0 2 7</rect></_>
    <_>
      <rect>
        26 4 2 8</rect></_>
    <_>
      <rect>
        26 13 2 2</rect></_>
    <_>
      <rect>
        27 15 1 1</rect></_></features></cascade>
</opencv_storage>
