<?xml version="1.0"?>
<opencv_storage>
<!-- Created using Computer Vision System Toolbox(tm) for MATLAB(R) -->
<!-- Version 9.2.0.556344 (R2017a) -->
<!-- Compatible with OpenCV 3.1 -->
<cascade>
  <stageType>BOOST</stageType>
  <featureType>LBP</featureType>
  <height>32</height>
  <width>33</width>
  <stageParams>
    <boostType>GAB</boostType>
    <minHitRate>9.9500000476837158e-01</minHitRate>
    <maxFalseAlarm>1.0000000149011612e-01</maxFalseAlarm>
    <weightTrimRate>9.4999999999999996e-01</weightTrimRate>
    <maxDepth>1</maxDepth>
    <maxWeakCount>100</maxWeakCount></stageParams>
  <featureParams>
    <maxCatCount>256</maxCatCount>
    <featSize>1</featSize></featureParams>
  <stageNum>10</stageNum>
  <stages>
    <!-- stage 0 -->
    <_>
      <maxWeakCount>4</maxWeakCount>
      <stageThreshold>-2.4562300741672516e-01</stageThreshold>
      <weakClassifiers>
        <_>
          <internalNodes>
            0 -1 31 -10249 -544389501 -738163429 2073149719 -788211574
            -1063546751 -402467848 -2364529</internalNodes>
          <leafValues>
            -8.8129031658172607e-01 8.5955053567886353e-01</leafValues></_>
        <_>
          <internalNodes>
            0 -1 24 -69208229 -8036005 -247393903 -15486947 -804663345
            -619695861 1535760415 -11047857</internalNodes>
          <leafValues>
            -9.0140450000762939e-01 7.4907374382019043e-01</leafValues></_>
        <_>
          <internalNodes>
            0 -1 25 -547360033 -70487792 -536849344 -204353057
            -670906644 -142048880 -417804863 -3419373</internalNodes>
          <leafValues>
            -8.9701044559478760e-01 7.5005048513412476e-01</leafValues></_>
        <_>
          <internalNodes>
            0 -1 11 -660932353 -376061945 1350712319 -6186029
            -2147481429 -45444854 688556439 -281285837</internalNodes>
          <leafValues>
            -8.6345696449279785e-01 7.8954941034317017e-01</leafValues></_></weakClassifiers></_>
    <!-- stage 1 -->
    <_>
      <maxWeakCount>4</maxWeakCount>
      <stageThreshold>-2.7381083369255066e-01</stageThreshold>
      <weakClassifiers>
        <_>
          <internalNodes>
            0 -1 27 -171720225 -73694873 303104265 -248701561 -357565009
            -1076260725 -323180369 -2097153</internalNodes>
          <leafValues>
            -8.2908165454864502e-01 7.8674352169036865e-01</leafValues></_>
        <_>
          <internalNodes>
            0 -1 12 -640202241 -577026785 -1056769285 -183021376
            -1933206081 -45369982 824767454 -536303</internalNodes>
          <leafValues>
            -8.8035619258880615e-01 6.8889296054840088e-01</leafValues></_>
        <_>
          <internalNodes>
            0 -1 38 -205532673 -541454268 319508635 1697612011
            -887367894 -687169536 -1035212629 -564135381</internalNodes>
          <leafValues>
            -8.1404626369476318e-01 7.3952043056488037e-01</leafValues></_>
        <_>
          <internalNodes>
            0 -1 22 -203753473 -673720104 172065887 282132732
            -1434142997 -869940504 -1664555521 -16829841</internalNodes>
          <leafValues>
            -8.7314260005950928e-01 7.0814234018325806e-01</leafValues></_></weakClassifiers></_>
    <!-- stage 2 -->
    <_>
      <maxWeakCount>4</maxWeakCount>
      <stageThreshold>-3.6824166774749756e-01</stageThreshold>
      <weakClassifiers>
        <_>
          <internalNodes>
            0 -1 42 -573310977 -141327905 -1727818469 -41971425
            -66069878 -1734695550 -509366642 -1077954113</internalNodes>
          <leafValues>
            -8.8186812400817871e-01 6.5756821632385254e-01</leafValues></_>
        <_>
          <internalNodes>
            0 -1 2 -2049 -813481042 -201234021 -201338897 -1073165329
            -669277943 -1309550201 -15517867</internalNodes>
          <leafValues>
            -8.6376798152923584e-01 6.7621058225631714e-01</leafValues></_>
        <_>
          <internalNodes>
            0 -1 43 -1230307366 -170437411 -784239121 -536914535
            -1198812417 -581995894 -1555350898 -1078993473</internalNodes>
          <leafValues>
            -8.6993855237960815e-01 6.6278541088104248e-01</leafValues></_>
        <_>
          <internalNodes>
            0 -1 14 -649004515 -575598392 352403483 -578485985
            -1106666472 -15759300 -1709135686 -1148675381</internalNodes>
          <leafValues>
            -8.2482731342315674e-01 7.3177736997604370e-01</leafValues></_></weakClassifiers></_>
    <!-- stage 3 -->
    <_>
      <maxWeakCount>6</maxWeakCount>
      <stageThreshold>-2.8575214743614197e-01</stageThreshold>
      <weakClassifiers>
        <_>
          <internalNodes>
            0 -1 34 -17 -343932929 -8217 -541065217 -16778577 -29361108
            -33566737 -83886081</internalNodes>
          <leafValues>
            -7.9455447196960449e-01 8.2043343782424927e-01</leafValues></_>
        <_>
          <internalNodes>
            0 -1 1 -844238865 -573898665 890487039 -12904449 -1432712451
            1084787855 -1232025153 2003802809</internalNodes>
          <leafValues>
            -8.2939922809600830e-01 6.4022272825241089e-01</leafValues></_>
        <_>
          <internalNodes>
            0 -1 26 -1059858985 -371207843 -487284529 -279601253
            -806448754 -1316687593 -781913611 -2652617</internalNodes>
          <leafValues>
            -7.9724287986755371e-01 7.0536714792251587e-01</leafValues></_>
        <_>
          <internalNodes>
            0 -1 9 -1056974857 -188154406 -1031781869 -333533
            -1061496323 -842495768 -1023497805 -2458827</internalNodes>
          <leafValues>
            -8.3016985654830933e-01 6.4620625972747803e-01</leafValues></_>
        <_>
          <internalNodes>
            0 -1 0 -817896225 -648689830 1157763997 -1122695817
            1268506767 -1711046052 1363267799 -2367043</internalNodes>
          <leafValues>
            -7.4155580997467041e-01 7.5637280941009521e-01</leafValues></_>
        <_>
          <internalNodes>
            0 -1 30 -552618113 -1217968096 1367891228 1942434704
            -477889873 -1702199260 1327951071 -312548405</internalNodes>
          <leafValues>
            -7.3675668239593506e-01 7.8873032331466675e-01</leafValues></_></weakClassifiers></_>
    <!-- stage 4 -->
    <_>
      <maxWeakCount>5</maxWeakCount>
      <stageThreshold>-1.2158850431442261e+00</stageThreshold>
      <weakClassifiers>
        <_>
          <internalNodes>
            0 -1 4 -135176705 -205259169 -1617395745 -1612 -2088316929
            -507330903 -82056213 -4319043</internalNodes>
          <leafValues>
            -8.4533333778381348e-01 6.7454069852828979e-01</leafValues></_>
        <_>
          <internalNodes>
            0 -1 21 -2013399681 -274736432 -204867623 1912539304
            -1194605638 -828227238 1071642090 -572392565</internalNodes>
          <leafValues>
            -8.6394923925399780e-01 5.8659648895263672e-01</leafValues></_>
        <_>
          <internalNodes>
            0 -1 19 -1112055809 -605046876 -1677502093 -339268109
            1064484536 -1111556728 462077941 -1611675271</internalNodes>
          <leafValues>
            -8.4171068668365479e-01 6.3608312606811523e-01</leafValues></_>
        <_>
          <internalNodes>
            0 -1 36 -162269449 -84475938 557258615 -1713457217
            -1506018258 -836253651 2117831855 -563876866</internalNodes>
          <leafValues>
            -8.1231421232223511e-01 7.0677232742309570e-01</leafValues></_>
        <_>
          <internalNodes>
            0 -1 6 -34468353 -608438310 -348317986 -67360004 -352437255
            -103860136 -70877799 -805422339</internalNodes>
          <leafValues>
            -8.4945791959762573e-01 6.4781504869461060e-01</leafValues></_></weakClassifiers></_>
    <!-- stage 5 -->
    <_>
      <maxWeakCount>4</maxWeakCount>
      <stageThreshold>-2.8380352258682251e-01</stageThreshold>
      <weakClassifiers>
        <_>
          <internalNodes>
            0 -1 13 -1659307777 -103475117 1545260767 -103605777
            -933723905 -39282536 -399973889 -38689</internalNodes>
          <leafValues>
            -8.2031250000000000e-01 6.9696968793869019e-01</leafValues></_>
        <_>
          <internalNodes>
            0 -1 15 -1248298499 -82488278 -1852696227 -40302435
            -385304360 -1128431576 -1449464321 -1164310375</internalNodes>
          <leafValues>
            -7.7072548866271973e-01 7.1650153398513794e-01</leafValues></_>
        <_>
          <internalNodes>
            0 -1 16 -758122881 -765652813 -1975024081 -35672617
            -929313618 -557257072 -76022145 -5243401</internalNodes>
          <leafValues>
            -7.8005880117416382e-01 6.9816249608993530e-01</leafValues></_>
        <_>
          <internalNodes>
            0 -1 10 1970533358 -372557458 -788305349 -682540805
            -756704273 -819461502 -803814705 1542143471</internalNodes>
          <leafValues>
            -8.7815511226654053e-01 6.1675733327865601e-01</leafValues></_></weakClassifiers></_>
    <!-- stage 6 -->
    <_>
      <maxWeakCount>6</maxWeakCount>
      <stageThreshold>-5.3843843936920166e-01</stageThreshold>
      <weakClassifiers>
        <_>
          <internalNodes>
            0 -1 29 -49152137 -251031753 -2004147573 -120223357
            -280249361 -362151702 -72641878 -592716113</internalNodes>
          <leafValues>
            -7.9161369800567627e-01 7.1511626243591309e-01</leafValues></_>
        <_>
          <internalNodes>
            0 -1 28 -78381057 -371464213 -1760246208 -684615335
            1151052478 -1132268374 -943396288 -721980965</internalNodes>
          <leafValues>
            -8.7208122014999390e-01 5.8391124010086060e-01</leafValues></_>
        <_>
          <internalNodes>
            0 -1 20 2140755935 -1088956125 1582413341 -1282018595
            708360602 -1157714770 1033820917 -17235969</internalNodes>
          <leafValues>
            -8.1655395030975342e-01 6.7071950435638428e-01</leafValues></_>
        <_>
          <internalNodes>
            0 -1 37 -67110147 1423436261 227908699 1138089587 -302121928
            -1066552320 -1378899275 -1898196034</internalNodes>
          <leafValues>
            -8.4219163656234741e-01 6.4972782135009766e-01</leafValues></_>
        <_>
          <internalNodes>
            0 -1 32 -1856310374 -285112640 1459728387 -553148925
            -1568415576 -903868340 455992011 -547098211</internalNodes>
          <leafValues>
            -7.7326565980911255e-01 7.2297441959381104e-01</leafValues></_>
        <_>
          <internalNodes>
            0 -1 17 -1010115585 -989750238 377585943 -1190837933
            -1232943142 -861371712 59893123 1374147881</internalNodes>
          <leafValues>
            -8.9272814989089966e-01 6.2427902221679688e-01</leafValues></_></weakClassifiers></_>
    <!-- stage 7 -->
    <_>
      <maxWeakCount>4</maxWeakCount>
      <stageThreshold>-2.6440453529357910e-01</stageThreshold>
      <weakClassifiers>
        <_>
          <internalNodes>
            0 -1 18 1475083775 -1688007233 27441471 -74326051
            -1999972609 -787553 -1418745121 -38169</internalNodes>
          <leafValues>
            -8.0468750000000000e-01 6.6391181945800781e-01</leafValues></_>
        <_>
          <internalNodes>
            0 -1 44 -71354696 1543439418 407228766 2036321039 -347080706
            -1223185734 -1226078502 -33556993</internalNodes>
          <leafValues>
            -8.2590252161026001e-01 6.4308798313140869e-01</leafValues></_>
        <_>
          <internalNodes>
            0 -1 40 -1311509830 -742326080 -1845016358 -762324889
            -1558478808 -821526526 -175375457 -6649441</internalNodes>
          <leafValues>
            -7.5331437587738037e-01 7.2831898927688599e-01</leafValues></_>
        <_>
          <internalNodes>
            0 -1 23 -1317571623 -376182798 326472976 -45031983
            -1810155124 -1444894488 1766828330 -17209997</internalNodes>
          <leafValues>
            -8.1808996200561523e-01 6.5634864568710327e-01</leafValues></_></weakClassifiers></_>
    <!-- stage 8 -->
    <_>
      <maxWeakCount>4</maxWeakCount>
      <stageThreshold>-8.1305410712957382e-03</stageThreshold>
      <weakClassifiers>
        <_>
          <internalNodes>
            0 -1 41 1343832415 -1316904703 -1341849584 290574375
            -2104278706 855672454 809784780 406833933</internalNodes>
          <leafValues>
            -8.7134504318237305e-01 7.8536587953567505e-01</leafValues></_>
        <_>
          <internalNodes>
            0 -1 33 1064802806 -559777 -16389 -231554 -42066 -8865
            -142877701 -550453381</internalNodes>
          <leafValues>
            -7.0835429430007935e-01 8.8109111785888672e-01</leafValues></_>
        <_>
          <internalNodes>
            0 -1 35 -1723772611 -743243707 167870545 1587744897
            1107354190 -1197997927 -1677672293 1071007877</internalNodes>
          <leafValues>
            -8.0600154399871826e-01 7.9908764362335205e-01</leafValues></_>
        <_>
          <internalNodes>
            0 -1 8 1900101903 -1069477887 -1875819249 -78822901
            -800931586 -1895808640 -1870102423 151503521</internalNodes>
          <leafValues>
            -8.6592632532119751e-01 7.7248114347457886e-01</leafValues></_></weakClassifiers></_>
    <!-- stage 9 -->
    <_>
      <maxWeakCount>4</maxWeakCount>
      <stageThreshold>1.2315335124731064e-01</stageThreshold>
      <weakClassifiers>
        <_>
          <internalNodes>
            0 -1 39 -1082122889 -98306 -65542 -598018 -6291457
            2138963967 1621557642 -550481158</internalNodes>
          <leafValues>
            -7.9199999570846558e-01 8.9583331346511841e-01</leafValues></_>
        <_>
          <internalNodes>
            0 -1 3 553978311 288882689 209 1883832353 -914323431
            696909824 -1071609632 325615619</internalNodes>
          <leafValues>
            -8.5969239473342896e-01 8.5715907812118530e-01</leafValues></_>
        <_>
          <internalNodes>
            0 -1 7 9896599 419719313 335742285 -846692350 -2147483366
            11010056 -2139086821 -610525184</internalNodes>
          <leafValues>
            -7.8943717479705811e-01 8.9793902635574341e-01</leafValues></_>
        <_>
          <internalNodes>
            0 -1 5 1108871697 286262020 1091571736 -1727004544
            -2147450821 -1994390878 -526267645 -862257144</internalNodes>
          <leafValues>
            -8.0650705099105835e-01 8.4743142127990723e-01</leafValues></_></weakClassifiers></_></stages>
  <features>
    <_>
      <rect>
        0 3 7 5</rect></_>
    <_>
      <rect>
        0 7 11 3</rect></_>
    <_>
      <rect>
        0 12 6 4</rect></_>
    <_>
      <rect>
        3 1 9 3</rect></_>
    <_>
      <rect>
        3 16 7 5</rect></_>
    <_>
      <rect>
        3 18 8 4</rect></_>
    <_>
      <rect>
        3 20 3 4</rect></_>
    <_>
      <rect>
        4 15 6 3</rect></_>
    <_>
      <rect>
        5 0 8 6</rect></_>
    <_>
      <rect>
        6 10 5 5</rect></_>
    <_>
      <rect>
        6 16 2 2</rect></_>
    <_>
      <rect>
        6 22 7 2</rect></_>
    <_>
      <rect>
        7 16 4 4</rect></_>
    <_>
      <rect>
        7 21 6 2</rect></_>
    <_>
      <rect>
        7 22 5 1</rect></_>
    <_>
      <rect>
        7 27 2 1</rect></_>
    <_>
      <rect>
        8 8 5 4</rect></_>
    <_>
      <rect>
        8 9 2 3</rect></_>
    <_>
      <rect>
        8 14 4 3</rect></_>
    <_>
      <rect>
        8 19 5 4</rect></_>
    <_>
      <rect>
        8 20 6 4</rect></_>
    <_>
      <rect>
        9 10 3 3</rect></_>
    <_>
      <rect>
        9 11 4 3</rect></_>
    <_>
      <rect>
        9 13 2 3</rect></_>
    <_>
      <rect>
        9 15 4 3</rect></_>
    <_>
      <rect>
        10 8 4 5</rect></_>
    <_>
      <rect>
        10 9 4 6</rect></_>
    <_>
      <rect>
        10 11 5 3</rect></_>
    <_>
      <rect>
        10 14 2 3</rect></_>
    <_>
      <rect>
        11 2 7 8</rect></_>
    <_>
      <rect>
        11 10 3 3</rect></_>
    <_>
      <rect>
        12 8 3 6</rect></_>
    <_>
      <rect>
        12 11 1 1</rect></_>
    <_>
      <rect>
        13 19 3 2</rect></_>
    <_>
      <rect>
        14 11 4 3</rect></_>
    <_>
      <rect>
        14 25 3 2</rect></_>
    <_>
      <rect>
        15 11 4 3</rect></_>
    <_>
      <rect>
        16 10 3 3</rect></_>
    <_>
      <rect>
        17 9 3 4</rect></_>
    <_>
      <rect>
        17 18 2 2</rect></_>
    <_>
      <rect>
        18 8 1 1</rect></_>
    <_>
      <rect>
        18 14 5 6</rect></_>
    <_>
      <rect>
        19 14 4 6</rect></_>
    <_>
      <rect>
        19 21 3 3</rect></_>
    <_>
      <rect>
        21 17 3 5</rect></_></features></cascade>
</opencv_storage>
