<?xml version="1.0"?>
<opencv_storage>
<!-- Created using Computer Vision System Toolbox(tm) for MATLAB(R) -->
<!-- Version 9.2.0.556344 (R2017a) -->
<!-- Compatible with OpenCV 3.1 -->
<cascade>
  <stageType>BOOST</stageType>
  <featureType>HAAR</featureType>
  <height>32</height>
  <width>34</width>
  <stageParams>
    <boostType>GAB</boostType>
    <minHitRate>9.9500000476837158e-01</minHitRate>
    <maxFalseAlarm>2.0000000298023224e-01</maxFalseAlarm>
    <weightTrimRate>9.4999999999999996e-01</weightTrimRate>
    <maxDepth>1</maxDepth>
    <maxWeakCount>100</maxWeakCount></stageParams>
  <featureParams>
    <maxCatCount>0</maxCatCount>
    <featSize>1</featSize>
    <mode>BASIC</mode></featureParams>
  <stageNum>10</stageNum>
  <stages>
    <!-- stage 0 -->
    <_>
      <maxWeakCount>5</maxWeakCount>
      <stageThreshold>-1.0053051710128784e+00</stageThreshold>
      <weakClassifiers>
        <_>
          <internalNodes>
            0 -1 56 -6.5003959462046623e-03</internalNodes>
          <leafValues>
            7.1590906381607056e-01 -8.2058048248291016e-01</leafValues></_>
        <_>
          <internalNodes>
            0 -1 43 -1.3405900448560715e-02</internalNodes>
          <leafValues>
            6.8783396482467651e-01 -7.1395951509475708e-01</leafValues></_>
        <_>
          <internalNodes>
            0 -1 45 -2.5995776057243347e-02</internalNodes>
          <leafValues>
            5.7960093021392822e-01 -7.6867878437042236e-01</leafValues></_>
        <_>
          <internalNodes>
            0 -1 46 -4.5189103111624718e-03</internalNodes>
          <leafValues>
            4.5441973209381104e-01 -8.2681012153625488e-01</leafValues></_>
        <_>
          <internalNodes>
            0 -1 73 3.8731775712221861e-03</internalNodes>
          <leafValues>
            -5.0478583574295044e-01 7.9423826932907104e-01</leafValues></_></weakClassifiers></_>
    <!-- stage 1 -->
    <_>
      <maxWeakCount>7</maxWeakCount>
      <stageThreshold>-8.3468872308731079e-01</stageThreshold>
      <weakClassifiers>
        <_>
          <internalNodes>
            0 -1 30 1.1109348386526108e-02</internalNodes>
          <leafValues>
            -7.9384201765060425e-01 6.1432504653930664e-01</leafValues></_>
        <_>
          <internalNodes>
            0 -1 69 -1.9324272871017456e-02</internalNodes>
          <leafValues>
            6.3305091857910156e-01 -6.6952985525131226e-01</leafValues></_>
        <_>
          <internalNodes>
            0 -1 65 -7.1044578216969967e-03</internalNodes>
          <leafValues>
            7.3813545703887939e-01 -5.1664429903030396e-01</leafValues></_>
        <_>
          <internalNodes>
            0 -1 21 3.3531941007822752e-03</internalNodes>
          <leafValues>
            -4.7282969951629639e-01 7.1661591529846191e-01</leafValues></_>
        <_>
          <internalNodes>
            0 -1 17 -2.7313329279422760e-02</internalNodes>
          <leafValues>
            6.0484945774078369e-01 -4.8550257086753845e-01</leafValues></_>
        <_>
          <internalNodes>
            0 -1 37 -1.5133623033761978e-02</internalNodes>
          <leafValues>
            4.0889334678649902e-01 -8.5787314176559448e-01</leafValues></_>
        <_>
          <internalNodes>
            0 -1 71 -8.3147082477807999e-03</internalNodes>
          <leafValues>
            6.8173515796661377e-01 -5.7038456201553345e-01</leafValues></_></weakClassifiers></_>
    <!-- stage 2 -->
    <_>
      <maxWeakCount>7</maxWeakCount>
      <stageThreshold>-4.2820340394973755e-01</stageThreshold>
      <weakClassifiers>
        <_>
          <internalNodes>
            0 -1 57 -2.8907064348459244e-02</internalNodes>
          <leafValues>
            7.1530246734619141e-01 -6.8878167867660522e-01</leafValues></_>
        <_>
          <internalNodes>
            0 -1 3 -1.5585303306579590e-02</internalNodes>
          <leafValues>
            7.4358993768692017e-01 -4.4915252923965454e-01</leafValues></_>
        <_>
          <internalNodes>
            0 -1 18 -7.3580080643296242e-03</internalNodes>
          <leafValues>
            -9.4467645883560181e-01 3.5756954550743103e-01</leafValues></_>
        <_>
          <internalNodes>
            0 -1 24 1.6942195594310760e-02</internalNodes>
          <leafValues>
            2.3689511418342590e-01 -9.7804266214370728e-01</leafValues></_>
        <_>
          <internalNodes>
            0 -1 67 1.4303451403975487e-02</internalNodes>
          <leafValues>
            -3.9420077204704285e-01 8.1541550159454346e-01</leafValues></_>
        <_>
          <internalNodes>
            0 -1 14 -2.3169680498540401e-03</internalNodes>
          <leafValues>
            -9.1407352685928345e-01 3.3542123436927795e-01</leafValues></_>
        <_>
          <internalNodes>
            0 -1 2 -4.1295302798971534e-04</internalNodes>
          <leafValues>
            -8.3351331949234009e-01 2.8354921936988831e-01</leafValues></_></weakClassifiers></_>
    <!-- stage 3 -->
    <_>
      <maxWeakCount>8</maxWeakCount>
      <stageThreshold>-5.9512072801589966e-01</stageThreshold>
      <weakClassifiers>
        <_>
          <internalNodes>
            0 -1 55 -2.9271904379129410e-02</internalNodes>
          <leafValues>
            8.4937238693237305e-01 -6.5786451101303101e-01</leafValues></_>
        <_>
          <internalNodes>
            0 -1 6 9.7011253237724304e-03</internalNodes>
          <leafValues>
            -7.0848518610000610e-01 3.6503759026527405e-01</leafValues></_>
        <_>
          <internalNodes>
            0 -1 61 -1.5945717692375183e-02</internalNodes>
          <leafValues>
            8.2725042104721069e-01 -3.7833476066589355e-01</leafValues></_>
        <_>
          <internalNodes>
            0 -1 28 -8.1547978334128857e-04</internalNodes>
          <leafValues>
            -8.7735432386398315e-01 3.8051345944404602e-01</leafValues></_>
        <_>
          <internalNodes>
            0 -1 13 -2.5679827667772770e-03</internalNodes>
          <leafValues>
            -9.3110781908035278e-01 3.0595734715461731e-01</leafValues></_>
        <_>
          <internalNodes>
            0 -1 49 -1.2330478057265282e-03</internalNodes>
          <leafValues>
            -8.5314065217971802e-01 1.8282753229141235e-01</leafValues></_>
        <_>
          <internalNodes>
            0 -1 36 -1.0044593364000320e-03</internalNodes>
          <leafValues>
            -8.9162379503250122e-01 2.5314441323280334e-01</leafValues></_>
        <_>
          <internalNodes>
            0 -1 0 4.1236792458221316e-04</internalNodes>
          <leafValues>
            2.4294599890708923e-01 -7.8134137392044067e-01</leafValues></_></weakClassifiers></_>
    <!-- stage 4 -->
    <_>
      <maxWeakCount>9</maxWeakCount>
      <stageThreshold>-9.0609991550445557e-01</stageThreshold>
      <weakClassifiers>
        <_>
          <internalNodes>
            0 -1 19 1.4394962228834629e-02</internalNodes>
          <leafValues>
            -5.9210526943206787e-01 8.5858583450317383e-01</leafValues></_>
        <_>
          <internalNodes>
            0 -1 50 8.4725883789360523e-04</internalNodes>
          <leafValues>
            3.9777293801307678e-01 -8.6780923604965210e-01</leafValues></_>
        <_>
          <internalNodes>
            0 -1 1 3.7700356915593147e-04</internalNodes>
          <leafValues>
            3.0250516533851624e-01 -7.3362672328948975e-01</leafValues></_>
        <_>
          <internalNodes>
            0 -1 47 -6.2672444619238377e-04</internalNodes>
          <leafValues>
            3.1333160400390625e-01 -6.8687427043914795e-01</leafValues></_>
        <_>
          <internalNodes>
            0 -1 32 -3.7645851261913776e-04</internalNodes>
          <leafValues>
            -8.9852708578109741e-01 2.5461119413375854e-01</leafValues></_>
        <_>
          <internalNodes>
            0 -1 33 3.3963227178901434e-04</internalNodes>
          <leafValues>
            3.5339963436126709e-01 -6.4844834804534912e-01</leafValues></_>
        <_>
          <internalNodes>
            0 -1 31 -4.2483191937208176e-03</internalNodes>
          <leafValues>
            8.1827014684677124e-01 -3.7967157363891602e-01</leafValues></_>
        <_>
          <internalNodes>
            0 -1 11 -1.6615842469036579e-03</internalNodes>
          <leafValues>
            4.7358706593513489e-01 -5.3356081247329712e-01</leafValues></_>
        <_>
          <internalNodes>
            0 -1 75 -3.9756814949214458e-03</internalNodes>
          <leafValues>
            -8.7752074003219604e-01 2.7218335866928101e-01</leafValues></_></weakClassifiers></_>
    <!-- stage 5 -->
    <_>
      <maxWeakCount>8</maxWeakCount>
      <stageThreshold>-8.0439472198486328e-01</stageThreshold>
      <weakClassifiers>
        <_>
          <internalNodes>
            0 -1 15 2.8378102928400040e-02</internalNodes>
          <leafValues>
            -6.0444444417953491e-01 8.2857143878936768e-01</leafValues></_>
        <_>
          <internalNodes>
            0 -1 5 -1.4866656064987183e-01</internalNodes>
          <leafValues>
            6.8554979562759399e-01 -3.8192442059516907e-01</leafValues></_>
        <_>
          <internalNodes>
            0 -1 64 1.0017024353146553e-02</internalNodes>
          <leafValues>
            -4.4652032852172852e-01 5.9602290391921997e-01</leafValues></_>
        <_>
          <internalNodes>
            0 -1 44 2.7298361528664827e-03</internalNodes>
          <leafValues>
            -5.5476510524749756e-01 3.9819416403770447e-01</leafValues></_>
        <_>
          <internalNodes>
            0 -1 35 -6.8377736024558544e-03</internalNodes>
          <leafValues>
            2.2850428521633148e-01 -9.0267127752304077e-01</leafValues></_>
        <_>
          <internalNodes>
            0 -1 34 -3.2854840159416199e-02</internalNodes>
          <leafValues>
            -9.5891833305358887e-01 2.1795640885829926e-01</leafValues></_>
        <_>
          <internalNodes>
            0 -1 26 -5.2702217362821102e-04</internalNodes>
          <leafValues>
            -8.7224030494689941e-01 1.4685961604118347e-01</leafValues></_>
        <_>
          <internalNodes>
            0 -1 72 -3.0863524880260229e-03</internalNodes>
          <leafValues>
            7.9123723506927490e-01 -2.9931861162185669e-01</leafValues></_></weakClassifiers></_>
    <!-- stage 6 -->
    <_>
      <maxWeakCount>6</maxWeakCount>
      <stageThreshold>-7.4733662605285645e-01</stageThreshold>
      <weakClassifiers>
        <_>
          <internalNodes>
            0 -1 41 4.6520931646227837e-03</internalNodes>
          <leafValues>
            -8.4753364324569702e-01 4.4671201705932617e-01</leafValues></_>
        <_>
          <internalNodes>
            0 -1 22 -5.1111795008182526e-02</internalNodes>
          <leafValues>
            7.5718688964843750e-01 -5.6143671274185181e-01</leafValues></_>
        <_>
          <internalNodes>
            0 -1 48 -4.1337180882692337e-03</internalNodes>
          <leafValues>
            5.7351469993591309e-01 -5.5444753170013428e-01</leafValues></_>
        <_>
          <internalNodes>
            0 -1 52 -7.9663284122943878e-02</internalNodes>
          <leafValues>
            -9.4117224216461182e-01 3.1107711791992188e-01</leafValues></_>
        <_>
          <internalNodes>
            0 -1 68 -1.6747269779443741e-02</internalNodes>
          <leafValues>
            4.9805450439453125e-01 -6.1061143875122070e-01</leafValues></_>
        <_>
          <internalNodes>
            0 -1 23 -5.2412855438888073e-03</internalNodes>
          <leafValues>
            4.0694963932037354e-01 -6.7093598842620850e-01</leafValues></_></weakClassifiers></_>
    <!-- stage 7 -->
    <_>
      <maxWeakCount>10</maxWeakCount>
      <stageThreshold>-1.0429379940032959e+00</stageThreshold>
      <weakClassifiers>
        <_>
          <internalNodes>
            0 -1 70 -4.5462069101631641e-03</internalNodes>
          <leafValues>
            7.8109455108642578e-01 -5.7975798845291138e-01</leafValues></_>
        <_>
          <internalNodes>
            0 -1 63 -3.8240908179432154e-03</internalNodes>
          <leafValues>
            3.4019184112548828e-01 -7.3586463928222656e-01</leafValues></_>
        <_>
          <internalNodes>
            0 -1 39 1.4184832572937012e-02</internalNodes>
          <leafValues>
            -3.8252779841423035e-01 6.5331363677978516e-01</leafValues></_>
        <_>
          <internalNodes>
            0 -1 12 -2.9165085870772600e-03</internalNodes>
          <leafValues>
            3.8796260952949524e-01 -6.2162190675735474e-01</leafValues></_>
        <_>
          <internalNodes>
            0 -1 62 -4.7652027569711208e-04</internalNodes>
          <leafValues>
            -8.8007664680480957e-01 3.0647212266921997e-01</leafValues></_>
        <_>
          <internalNodes>
            0 -1 27 1.1120840907096863e-02</internalNodes>
          <leafValues>
            -4.0317603945732117e-01 6.5947008132934570e-01</leafValues></_>
        <_>
          <internalNodes>
            0 -1 66 -4.5881123514845967e-04</internalNodes>
          <leafValues>
            -9.8777896165847778e-01 2.6238447427749634e-01</leafValues></_>
        <_>
          <internalNodes>
            0 -1 25 -4.0646959096193314e-03</internalNodes>
          <leafValues>
            8.9873772859573364e-01 -3.4733992815017700e-01</leafValues></_>
        <_>
          <internalNodes>
            0 -1 20 2.2412115707993507e-02</internalNodes>
          <leafValues>
            3.3055686950683594e-01 -8.8257813453674316e-01</leafValues></_>
        <_>
          <internalNodes>
            0 -1 76 2.5696314405649900e-03</internalNodes>
          <leafValues>
            2.5543078780174255e-01 -7.9697924852371216e-01</leafValues></_></weakClassifiers></_>
    <!-- stage 8 -->
    <_>
      <maxWeakCount>9</maxWeakCount>
      <stageThreshold>-6.1973607540130615e-01</stageThreshold>
      <weakClassifiers>
        <_>
          <internalNodes>
            0 -1 54 1.1580645106732845e-02</internalNodes>
          <leafValues>
            -5.6521737575531006e-01 6.6246849298477173e-01</leafValues></_>
        <_>
          <internalNodes>
            0 -1 60 -4.9217935884371400e-04</internalNodes>
          <leafValues>
            -9.1241014003753662e-01 3.6213481426239014e-01</leafValues></_>
        <_>
          <internalNodes>
            0 -1 7 -1.1788144707679749e-02</internalNodes>
          <leafValues>
            6.7508226633071899e-01 -4.3159073591232300e-01</leafValues></_>
        <_>
          <internalNodes>
            0 -1 59 -1.7274487763643265e-03</internalNodes>
          <leafValues>
            7.9387211799621582e-01 -3.2615971565246582e-01</leafValues></_>
        <_>
          <internalNodes>
            0 -1 51 5.7847839780151844e-03</internalNodes>
          <leafValues>
            -7.7436411380767822e-01 3.3251804113388062e-01</leafValues></_>
        <_>
          <internalNodes>
            0 -1 53 -2.9282467439770699e-03</internalNodes>
          <leafValues>
            -8.6341577768325806e-01 2.4911184608936310e-01</leafValues></_>
        <_>
          <internalNodes>
            0 -1 40 -5.3603360429406166e-03</internalNodes>
          <leafValues>
            8.7723320722579956e-01 -2.9737085103988647e-01</leafValues></_>
        <_>
          <internalNodes>
            0 -1 38 3.1091147102415562e-03</internalNodes>
          <leafValues>
            -2.7583682537078857e-01 7.6496708393096924e-01</leafValues></_>
        <_>
          <internalNodes>
            0 -1 58 3.8836137391626835e-03</internalNodes>
          <leafValues>
            3.3267474174499512e-01 -8.8884723186492920e-01</leafValues></_></weakClassifiers></_>
    <!-- stage 9 -->
    <_>
      <maxWeakCount>8</maxWeakCount>
      <stageThreshold>3.2394230365753174e-02</stageThreshold>
      <weakClassifiers>
        <_>
          <internalNodes>
            0 -1 10 -6.5178629010915756e-03</internalNodes>
          <leafValues>
            -6.6101694107055664e-01 8.2278478145599365e-01</leafValues></_>
        <_>
          <internalNodes>
            0 -1 8 3.9443140849471092e-03</internalNodes>
          <leafValues>
            6.3253664970397949e-01 -7.1643269062042236e-01</leafValues></_>
        <_>
          <internalNodes>
            0 -1 4 -6.0611823573708534e-04</internalNodes>
          <leafValues>
            -7.0571327209472656e-01 5.7018035650253296e-01</leafValues></_>
        <_>
          <internalNodes>
            0 -1 42 -3.2658474519848824e-03</internalNodes>
          <leafValues>
            8.0553323030471802e-01 -4.6444162726402283e-01</leafValues></_>
        <_>
          <internalNodes>
            0 -1 16 -6.1832815408706665e-03</internalNodes>
          <leafValues>
            6.5858519077301025e-01 -4.6860986948013306e-01</leafValues></_>
        <_>
          <internalNodes>
            0 -1 9 2.8796713799238205e-02</internalNodes>
          <leafValues>
            3.3537372946739197e-01 -9.2776441574096680e-01</leafValues></_>
        <_>
          <internalNodes>
            0 -1 29 -5.5859722197055817e-03</internalNodes>
          <leafValues>
            9.9193108081817627e-01 -3.4711852669715881e-01</leafValues></_>
        <_>
          <internalNodes>
            0 -1 74 -7.8590977936983109e-03</internalNodes>
          <leafValues>
            -8.3952540159225464e-01 4.3549048900604248e-01</leafValues></_></weakClassifiers></_></stages>
  <features>
    <_>
      <rects>
        <_>
          0 5 2 25 -1.</_>
        <_>
          1 5 1 25 2.</_></rects>
      <tilted>0</tilted></_>
    <_>
      <rects>
        <_>
          0 10 4 2 -1.</_>
        <_>
          0 11 4 1 2.</_></rects>
      <tilted>0</tilted></_>
    <_>
      <rects>
        <_>
          0 10 5 2 -1.</_>
        <_>
          0 11 5 1 2.</_></rects>
      <tilted>0</tilted></_>
    <_>
      <rects>
        <_>
          0 19 12 3 -1.</_>
        <_>
          4 19 4 3 3.</_></rects>
      <tilted>0</tilted></_>
    <_>
      <rects>
        <_>
          1 0 9 2 -1.</_>
        <_>
          4 0 3 2 3.</_></rects>
      <tilted>0</tilted></_>
    <_>
      <rects>
        <_>
          1 6 33 20 -1.</_>
        <_>
          12 6 11 20 3.</_></rects>
      <tilted>0</tilted></_>
    <_>
      <rects>
        <_>
          1 7 20 10 -1.</_>
        <_>
          1 7 10 5 2.</_>
        <_>
          11 12 10 5 2.</_></rects>
      <tilted>0</tilted></_>
    <_>
      <rects>
        <_>
          1 21 6 10 -1.</_>
        <_>
          3 21 2 10 3.</_></rects>
      <tilted>0</tilted></_>
    <_>
      <rects>
        <_>
          2 13 8 9 -1.</_>
        <_>
          2 16 8 3 3.</_></rects>
      <tilted>0</tilted></_>
    <_>
      <rects>
        <_>
          3 11 24 10 -1.</_>
        <_>
          3 11 12 5 2.</_>
        <_>
          15 16 12 5 2.</_></rects>
      <tilted>0</tilted></_>
    <_>
      <rects>
        <_>
          3 20 21 11 -1.</_>
        <_>
          10 20 7 11 3.</_></rects>
      <tilted>0</tilted></_>
    <_>
      <rects>
        <_>
          3 27 28 3 -1.</_>
        <_>
          3 28 28 1 3.</_></rects>
      <tilted>0</tilted></_>
    <_>
      <rects>
        <_>
          5 1 28 6 -1.</_>
        <_>
          5 3 28 2 3.</_></rects>
      <tilted>0</tilted></_>
    <_>
      <rects>
        <_>
          5 6 26 3 -1.</_>
        <_>
          5 7 26 1 3.</_></rects>
      <tilted>0</tilted></_>
    <_>
      <rects>
        <_>
          5 7 27 6 -1.</_>
        <_>
          5 9 27 2 3.</_></rects>
      <tilted>0</tilted></_>
    <_>
      <rects>
        <_>
          5 12 6 12 -1.</_>
        <_>
          5 12 3 6 2.</_>
        <_>
          8 18 3 6 2.</_></rects>
      <tilted>0</tilted></_>
    <_>
      <rects>
        <_>
          5 12 9 9 -1.</_>
        <_>
          8 12 3 9 3.</_></rects>
      <tilted>0</tilted></_>
    <_>
      <rects>
        <_>
          6 7 24 4 -1.</_>
        <_>
          14 7 8 4 3.</_></rects>
      <tilted>0</tilted></_>
    <_>
      <rects>
        <_>
          7 12 18 18 -1.</_>
        <_>
          13 12 6 18 3.</_></rects>
      <tilted>0</tilted></_>
    <_>
      <rects>
        <_>
          7 13 4 8 -1.</_>
        <_>
          7 13 2 4 2.</_>
        <_>
          9 17 2 4 2.</_></rects>
      <tilted>0</tilted></_>
    <_>
      <rects>
        <_>
          7 16 15 11 -1.</_>
        <_>
          12 16 5 11 3.</_></rects>
      <tilted>0</tilted></_>
    <_>
      <rects>
        <_>
          7 18 1 9 -1.</_>
        <_>
          7 21 1 3 3.</_></rects>
      <tilted>0</tilted></_>
    <_>
      <rects>
        <_>
          8 0 22 16 -1.</_>
        <_>
          8 8 22 8 2.</_></rects>
      <tilted>0</tilted></_>
    <_>
      <rects>
        <_>
          8 13 8 8 -1.</_>
        <_>
          8 13 4 4 2.</_>
        <_>
          12 17 4 4 2.</_></rects>
      <tilted>0</tilted></_>
    <_>
      <rects>
        <_>
          8 15 18 15 -1.</_>
        <_>
          14 15 6 15 3.</_></rects>
      <tilted>0</tilted></_>
    <_>
      <rects>
        <_>
          8 26 4 3 -1.</_>
        <_>
          8 27 4 1 3.</_></rects>
      <tilted>0</tilted></_>
    <_>
      <rects>
        <_>
          8 31 6 1 -1.</_>
        <_>
          11 31 3 1 2.</_></rects>
      <tilted>0</tilted></_>
    <_>
      <rects>
        <_>
          9 22 10 4 -1.</_>
        <_>
          9 22 5 2 2.</_>
        <_>
          14 24 5 2 2.</_></rects>
      <tilted>0</tilted></_>
    <_>
      <rects>
        <_>
          10 7 21 3 -1.</_>
        <_>
          10 8 21 1 3.</_></rects>
      <tilted>0</tilted></_>
    <_>
      <rects>
        <_>
          10 18 9 3 -1.</_>
        <_>
          10 19 9 1 3.</_></rects>
      <tilted>0</tilted></_>
    <_>
      <rects>
        <_>
          11 10 12 2 -1.</_>
        <_>
          15 10 4 2 3.</_></rects>
      <tilted>0</tilted></_>
    <_>
      <rects>
        <_>
          11 25 4 3 -1.</_>
        <_>
          11 26 4 1 3.</_></rects>
      <tilted>0</tilted></_>
    <_>
      <rects>
        <_>
          11 28 3 3 -1.</_>
        <_>
          12 28 1 3 3.</_></rects>
      <tilted>0</tilted></_>
    <_>
      <rects>
        <_>
          11 28 3 4 -1.</_>
        <_>
          12 28 1 4 3.</_></rects>
      <tilted>0</tilted></_>
    <_>
      <rects>
        <_>
          12 6 6 18 -1.</_>
        <_>
          12 15 6 9 2.</_></rects>
      <tilted>0</tilted></_>
    <_>
      <rects>
        <_>
          12 12 7 12 -1.</_>
        <_>
          12 18 7 6 2.</_></rects>
      <tilted>0</tilted></_>
    <_>
      <rects>
        <_>
          12 19 9 9 -1.</_>
        <_>
          15 19 3 9 3.</_></rects>
      <tilted>0</tilted></_>
    <_>
      <rects>
        <_>
          13 9 8 16 -1.</_>
        <_>
          13 17 8 8 2.</_></rects>
      <tilted>0</tilted></_>
    <_>
      <rects>
        <_>
          13 20 1 6 -1.</_>
        <_>
          13 22 1 2 3.</_></rects>
      <tilted>0</tilted></_>
    <_>
      <rects>
        <_>
          13 23 12 4 -1.</_>
        <_>
          13 23 6 2 2.</_>
        <_>
          19 25 6 2 2.</_></rects>
      <tilted>0</tilted></_>
    <_>
      <rects>
        <_>
          13 25 7 3 -1.</_>
        <_>
          13 26 7 1 3.</_></rects>
      <tilted>0</tilted></_>
    <_>
      <rects>
        <_>
          14 11 10 6 -1.</_>
        <_>
          14 11 5 3 2.</_>
        <_>
          19 14 5 3 2.</_></rects>
      <tilted>0</tilted></_>
    <_>
      <rects>
        <_>
          14 23 4 8 -1.</_>
        <_>
          14 27 4 4 2.</_></rects>
      <tilted>0</tilted></_>
    <_>
      <rects>
        <_>
          15 6 12 8 -1.</_>
        <_>
          15 6 6 4 2.</_>
        <_>
          21 10 6 4 2.</_></rects>
      <tilted>0</tilted></_>
    <_>
      <rects>
        <_>
          15 8 4 6 -1.</_>
        <_>
          15 10 4 2 3.</_></rects>
      <tilted>0</tilted></_>
    <_>
      <rects>
        <_>
          15 15 8 15 -1.</_>
        <_>
          15 20 8 5 3.</_></rects>
      <tilted>0</tilted></_>
    <_>
      <rects>
        <_>
          15 17 9 12 -1.</_>
        <_>
          18 17 3 12 3.</_></rects>
      <tilted>0</tilted></_>
    <_>
      <rects>
        <_>
          16 10 2 6 -1.</_>
        <_>
          16 13 2 3 2.</_></rects>
      <tilted>0</tilted></_>
    <_>
      <rects>
        <_>
          16 10 9 9 -1.</_>
        <_>
          16 13 9 3 3.</_></rects>
      <tilted>0</tilted></_>
    <_>
      <rects>
        <_>
          16 28 6 3 -1.</_>
        <_>
          18 28 2 3 3.</_></rects>
      <tilted>0</tilted></_>
    <_>
      <rects>
        <_>
          16 29 6 2 -1.</_>
        <_>
          18 29 2 2 3.</_></rects>
      <tilted>0</tilted></_>
    <_>
      <rects>
        <_>
          17 21 12 6 -1.</_>
        <_>
          23 21 6 6 2.</_></rects>
      <tilted>0</tilted></_>
    <_>
      <rects>
        <_>
          18 15 10 15 -1.</_>
        <_>
          18 20 10 5 3.</_></rects>
      <tilted>0</tilted></_>
    <_>
      <rects>
        <_>
          18 26 6 5 -1.</_>
        <_>
          20 26 2 5 3.</_></rects>
      <tilted>0</tilted></_>
    <_>
      <rects>
        <_>
          19 7 14 18 -1.</_>
        <_>
          19 13 14 6 3.</_></rects>
      <tilted>0</tilted></_>
    <_>
      <rects>
        <_>
          20 16 12 4 -1.</_>
        <_>
          24 16 4 4 3.</_></rects>
      <tilted>0</tilted></_>
    <_>
      <rects>
        <_>
          20 19 5 4 -1.</_>
        <_>
          20 21 5 2 2.</_></rects>
      <tilted>0</tilted></_>
    <_>
      <rects>
        <_>
          20 19 5 9 -1.</_>
        <_>
          20 22 5 3 3.</_></rects>
      <tilted>0</tilted></_>
    <_>
      <rects>
        <_>
          21 9 10 9 -1.</_>
        <_>
          21 12 10 3 3.</_></rects>
      <tilted>0</tilted></_>
    <_>
      <rects>
        <_>
          21 16 2 8 -1.</_>
        <_>
          21 16 1 4 2.</_>
        <_>
          22 20 1 4 2.</_></rects>
      <tilted>0</tilted></_>
    <_>
      <rects>
        <_>
          21 24 3 6 -1.</_>
        <_>
          22 24 1 6 3.</_></rects>
      <tilted>0</tilted></_>
    <_>
      <rects>
        <_>
          21 26 8 4 -1.</_>
        <_>
          21 28 8 2 2.</_></rects>
      <tilted>0</tilted></_>
    <_>
      <rects>
        <_>
          22 24 3 7 -1.</_>
        <_>
          23 24 1 7 3.</_></rects>
      <tilted>0</tilted></_>
    <_>
      <rects>
        <_>
          23 11 7 18 -1.</_>
        <_>
          23 17 7 6 3.</_></rects>
      <tilted>0</tilted></_>
    <_>
      <rects>
        <_>
          23 15 2 9 -1.</_>
        <_>
          23 18 2 3 3.</_></rects>
      <tilted>0</tilted></_>
    <_>
      <rects>
        <_>
          23 22 10 4 -1.</_>
        <_>
          23 22 5 2 2.</_>
        <_>
          28 24 5 2 2.</_></rects>
      <tilted>0</tilted></_>
    <_>
      <rects>
        <_>
          23 24 2 4 -1.</_>
        <_>
          24 24 1 4 2.</_></rects>
      <tilted>0</tilted></_>
    <_>
      <rects>
        <_>
          23 28 9 4 -1.</_>
        <_>
          23 30 9 2 2.</_></rects>
      <tilted>0</tilted></_>
    <_>
      <rects>
        <_>
          25 13 9 18 -1.</_>
        <_>
          28 13 3 18 3.</_></rects>
      <tilted>0</tilted></_>
    <_>
      <rects>
        <_>
          25 17 9 14 -1.</_>
        <_>
          28 17 3 14 3.</_></rects>
      <tilted>0</tilted></_>
    <_>
      <rects>
        <_>
          26 17 2 8 -1.</_>
        <_>
          26 17 1 4 2.</_>
        <_>
          27 21 1 4 2.</_></rects>
      <tilted>0</tilted></_>
    <_>
      <rects>
        <_>
          26 23 6 5 -1.</_>
        <_>
          29 23 3 5 2.</_></rects>
      <tilted>0</tilted></_>
    <_>
      <rects>
        <_>
          26 28 4 2 -1.</_>
        <_>
          26 29 4 1 2.</_></rects>
      <tilted>0</tilted></_>
    <_>
      <rects>
        <_>
          27 21 1 9 -1.</_>
        <_>
          27 24 1 3 3.</_></rects>
      <tilted>0</tilted></_>
    <_>
      <rects>
        <_>
          28 6 6 12 -1.</_>
        <_>
          28 10 6 4 3.</_></rects>
      <tilted>0</tilted></_>
    <_>
      <rects>
        <_>
          30 10 4 9 -1.</_>
        <_>
          30 13 4 3 3.</_></rects>
      <tilted>0</tilted></_>
    <_>
      <rects>
        <_>
          33 7 1 15 -1.</_>
        <_>
          33 12 1 5 3.</_></rects>
      <tilted>0</tilted></_></features></cascade>
</opencv_storage>
