<?xml version="1.0"?>
<opencv_storage>
<!-- Created using Computer Vision System Toolbox(tm) for MATLAB(R) -->
<!-- Version 9.2.0.556344 (R2017a) -->
<!-- Compatible with OpenCV 3.1 -->
<cascade>
  <stageType>BOOST</stageType>
  <featureType>LBP</featureType>
  <height>32</height>
  <width>34</width>
  <stageParams>
    <boostType>GAB</boostType>
    <minHitRate>9.9500000476837158e-01</minHitRate>
    <maxFalseAlarm>1.0000000149011612e-01</maxFalseAlarm>
    <weightTrimRate>9.4999999999999996e-01</weightTrimRate>
    <maxDepth>1</maxDepth>
    <maxWeakCount>100</maxWeakCount></stageParams>
  <featureParams>
    <maxCatCount>256</maxCatCount>
    <featSize>1</featSize></featureParams>
  <stageNum>10</stageNum>
  <stages>
    <!-- stage 0 -->
    <_>
      <maxWeakCount>4</maxWeakCount>
      <stageThreshold>-2.6407039165496826e-01</stageThreshold>
      <weakClassifiers>
        <_>
          <internalNodes>
            0 -1 24 -604504577 -117155816 1077989705 -574500391
            -515726866 -1592754023 -624643685 -101</internalNodes>
          <leafValues>
            -9.2633014917373657e-01 8.1962865591049194e-01</leafValues></_>
        <_>
          <internalNodes>
            0 -1 12 -49809409 -11024192 269604191 -202348370 -794495286
            -576151472 -919406168 -5145</internalNodes>
          <leafValues>
            -9.2008316516876221e-01 7.5589400529861450e-01</leafValues></_>
        <_>
          <internalNodes>
            0 -1 8 -539496193 -11464637 -620162721 -15236851 -939136871
            -662142848 948128395 -15005681</internalNodes>
          <leafValues>
            -8.9431989192962646e-01 8.2429575920104980e-01</leafValues></_>
        <_>
          <internalNodes>
            0 -1 15 -9699329 -182332959 1426151923 -82780911 -779879937
            -82310400 -467632119 -2393301</internalNodes>
          <leafValues>
            -8.6098825931549072e-01 8.0068564414978027e-01</leafValues></_></weakClassifiers></_>
    <!-- stage 1 -->
    <_>
      <maxWeakCount>4</maxWeakCount>
      <stageThreshold>-3.6792144179344177e-01</stageThreshold>
      <weakClassifiers>
        <_>
          <internalNodes>
            0 -1 7 -167774241 -977047058 1209110623 -741174821
            -1971142466 -997551094 -1227365985 -538971401</internalNodes>
          <leafValues>
            -9.0237098932266235e-01 7.0483458042144775e-01</leafValues></_>
        <_>
          <internalNodes>
            0 -1 34 -11044361 -677261137 -1659643729 1363640735
            -655886837 -364019701 -1515605317 1333788415</internalNodes>
          <leafValues>
            -9.1335713863372803e-01 6.7973667383193970e-01</leafValues></_>
        <_>
          <internalNodes>
            0 -1 29 -764936737 -154681084 -1793783537 -1060056785
            -661413238 -113534962 -1725248625 -5185</internalNodes>
          <leafValues>
            -8.4565502405166626e-01 7.9041004180908203e-01</leafValues></_>
        <_>
          <internalNodes>
            0 -1 2 -641794052 -8400578 -1694369969 -2395949 -644684821
            -931126104 -372645909 -550117457</internalNodes>
          <leafValues>
            -9.0683770179748535e-01 7.1325659751892090e-01</leafValues></_></weakClassifiers></_>
    <!-- stage 2 -->
    <_>
      <maxWeakCount>4</maxWeakCount>
      <stageThreshold>-4.9429446458816528e-01</stageThreshold>
      <weakClassifiers>
        <_>
          <internalNodes>
            0 -1 4 -653027073 -3324705 1208078495 -41560637 -2129950467
            -276100918 169595579 -4515701</internalNodes>
          <leafValues>
            -8.7327826023101807e-01 6.8750000000000000e-01</leafValues></_>
        <_>
          <internalNodes>
            0 -1 0 -140421121 -46333954 -2128615141 -7349762 -1065265489
            -800896864 -1417446753 -4237899</internalNodes>
          <leafValues>
            -9.3911367654800415e-01 6.7431885004043579e-01</leafValues></_>
        <_>
          <internalNodes>
            0 -1 32 -1083905 -773852001 -339268903 1410143665 -152518648
            -83115248 -338975061 -729811969</internalNodes>
          <leafValues>
            -9.0114498138427734e-01 6.0847973823547363e-01</leafValues></_>
        <_>
          <internalNodes>
            0 -1 21 -203434049 -875168321 -1818483777 -480469123
            -8528033 -1194398799 -351370244 -10641601</internalNodes>
          <leafValues>
            -8.5116046667098999e-01 6.9343256950378418e-01</leafValues></_></weakClassifiers></_>
    <!-- stage 3 -->
    <_>
      <maxWeakCount>4</maxWeakCount>
      <stageThreshold>-2.9248246550559998e-01</stageThreshold>
      <weakClassifiers>
        <_>
          <internalNodes>
            0 -1 19 -88605953 -73980993 -47658437 -1145939113 -564602627
            -20133457 -364840725 -4470306</internalNodes>
          <leafValues>
            -8.5538882017135620e-01 6.8169760704040527e-01</leafValues></_>
        <_>
          <internalNodes>
            0 -1 37 -71315617 -1952229577 654791651 304305303 -862725365
            -1926915045 -1284790613 2067529663</internalNodes>
          <leafValues>
            -8.6953663825988770e-01 7.1300083398818970e-01</leafValues></_>
        <_>
          <internalNodes>
            0 -1 17 -174554181 -733707969 -1949064774 -313412659
            822845927 1240922663 -1444758849 -563122</internalNodes>
          <leafValues>
            -8.6989474296569824e-01 6.9860076904296875e-01</leafValues></_>
        <_>
          <internalNodes>
            0 -1 14 -795682309 -275867972 1628602879 1535615299
            262704575 -553468806 -956050945 -7340294</internalNodes>
          <leafValues>
            -8.0324417352676392e-01 7.4774080514907837e-01</leafValues></_></weakClassifiers></_>
    <!-- stage 4 -->
    <_>
      <maxWeakCount>4</maxWeakCount>
      <stageThreshold>-4.4802087545394897e-01</stageThreshold>
      <weakClassifiers>
        <_>
          <internalNodes>
            0 -1 18 -1746969089 -1215319041 -361149049 -86247533
            -1110463778 -3135576 -134220917 -4322868</internalNodes>
          <leafValues>
            -9.3413174152374268e-01 5.7466065883636475e-01</leafValues></_>
        <_>
          <internalNodes>
            0 -1 20 -48386721 -707684903 301298943 -774768497
            -1144068161 -67114246 -1065568081 -37905</internalNodes>
          <leafValues>
            -8.4886878728866577e-01 7.2845470905303955e-01</leafValues></_>
        <_>
          <internalNodes>
            0 -1 23 -1073744961 -570573765 -1499660801 -2237541
            -885785602 -362899153 -394985744 -540292956</internalNodes>
          <leafValues>
            -8.6425966024398804e-01 6.6414505243301392e-01</leafValues></_>
        <_>
          <internalNodes>
            0 -1 26 -203428053 -549988437 -748850757 1939598747
            1540018159 -108228469 1272707038 -616906284</internalNodes>
          <leafValues>
            -8.3795773983001709e-01 7.2112154960632324e-01</leafValues></_></weakClassifiers></_>
    <!-- stage 5 -->
    <_>
      <maxWeakCount>4</maxWeakCount>
      <stageThreshold>-3.3937677741050720e-01</stageThreshold>
      <weakClassifiers>
        <_>
          <internalNodes>
            0 -1 28 -1317537985 2100404601 1103840157 -843714913
            -285767489 -344226705 -1968191301 -33559573</internalNodes>
          <leafValues>
            -8.3333331346511841e-01 6.8306010961532593e-01</leafValues></_>
        <_>
          <internalNodes>
            0 -1 5 -1969352193 938102518 -1948587726 -403966017
            -1560748097 -354626838 -1376681 -268810197</internalNodes>
          <leafValues>
            -8.8244801759719849e-01 5.9766644239425659e-01</leafValues></_>
        <_>
          <internalNodes>
            0 -1 3 1610347875 -781856410 -682536881 -78936033 -236126227
            -549443801 629965427 -2097481</internalNodes>
          <leafValues>
            -7.7479916810989380e-01 7.3646628856658936e-01</leafValues></_>
        <_>
          <internalNodes>
            0 -1 35 -732695041 -1122921579 -1983835131 -1610763345
            -3671602 -1417400946 -1998064148 -1170232017</internalNodes>
          <leafValues>
            -8.4017616510391235e-01 6.9656044244766235e-01</leafValues></_></weakClassifiers></_>
    <!-- stage 6 -->
    <_>
      <maxWeakCount>4</maxWeakCount>
      <stageThreshold>-3.8267889618873596e-01</stageThreshold>
      <weakClassifiers>
        <_>
          <internalNodes>
            0 -1 16 -713572865 -1242048005 -378428047 -170664443
            -119094337 -1544511261 -1312823557 -84444417</internalNodes>
          <leafValues>
            -8.5326087474822998e-01 6.8983960151672363e-01</leafValues></_>
        <_>
          <internalNodes>
            0 -1 1 -572950785 -48046652 386755310 -34992206 -123060993
            -788987776 -108117349 -1113048390</internalNodes>
          <leafValues>
            -8.4365385770797729e-01 6.2609905004501343e-01</leafValues></_>
        <_>
          <internalNodes>
            0 -1 36 -69206118 -48968756 19076597 -40906275 -1456342785
            -611200865 -1886420037 -71320597</internalNodes>
          <leafValues>
            -8.3094716072082520e-01 6.6438251733779907e-01</leafValues></_>
        <_>
          <internalNodes>
            0 -1 31 -772097 -537241732 -68575585 1933007459 159694265
            -7679747 939616923 -1087485779</internalNodes>
          <leafValues>
            -8.1989961862564087e-01 6.8809264898300171e-01</leafValues></_></weakClassifiers></_>
    <!-- stage 7 -->
    <_>
      <maxWeakCount>4</maxWeakCount>
      <stageThreshold>-3.2986870408058167e-01</stageThreshold>
      <weakClassifiers>
        <_>
          <internalNodes>
            0 -1 22 1763546615 -115489825 265881119 -204093529
            -885014529 -40117627 -34616145 -3420241</internalNodes>
          <leafValues>
            -8.0494147539138794e-01 7.3020529747009277e-01</leafValues></_>
        <_>
          <internalNodes>
            0 -1 10 -294134121 -132311295 -1426249167 -1621689
            -1979019588 -700825584 -357650689 -1125</internalNodes>
          <leafValues>
            -8.6931180953979492e-01 6.0251003503799438e-01</leafValues></_>
        <_>
          <internalNodes>
            0 -1 13 1843262847 -909945861 -1691896799 -409405123
            -1120280547 -1158966225 -571688933 -84214481</internalNodes>
          <leafValues>
            -7.7692925930023193e-01 7.2101318836212158e-01</leafValues></_>
        <_>
          <internalNodes>
            0 -1 30 2088662971 -120512303 1221264639 -19970067
            1002080626 -894506883 2131331307 -12910022</internalNodes>
          <leafValues>
            -8.4845042228698730e-01 6.7661142349243164e-01</leafValues></_></weakClassifiers></_>
    <!-- stage 8 -->
    <_>
      <maxWeakCount>4</maxWeakCount>
      <stageThreshold>-1.7144358158111572e-01</stageThreshold>
      <weakClassifiers>
        <_>
          <internalNodes>
            0 -1 9 277681439 -2145187635 1229848674 -921695220 34193409
            679608834 546046120 -79534077</internalNodes>
          <leafValues>
            -9.5092022418975830e-01 7.5961536169052124e-01</leafValues></_>
        <_>
          <internalNodes>
            0 -1 6 -1589472585 -972994550 1409417478 -83767280
            1223973299 1086357768 1394245639 1539376169</internalNodes>
          <leafValues>
            -9.1984152793884277e-01 7.7147227525711060e-01</leafValues></_>
        <_>
          <internalNodes>
            0 -1 33 270225937 1508442131 8487108 -754646911 16777223
            -937164800 371329199 -351772030</internalNodes>
          <leafValues>
            -8.4867370128631592e-01 7.6125484704971313e-01</leafValues></_>
        <_>
          <internalNodes>
            0 -1 38 302047426 1107296256 16810000 -1056636792
            -1610047480 -2013265920 1208525002 -955570006</internalNodes>
          <leafValues>
            -8.4531164169311523e-01 8.5667806863784790e-01</leafValues></_></weakClassifiers></_>
    <!-- stage 9 -->
    <_>
      <maxWeakCount>3</maxWeakCount>
      <stageThreshold>8.6440056562423706e-01</stageThreshold>
      <weakClassifiers>
        <_>
          <internalNodes>
            0 -1 27 1410356208 105381904 8388880 1140920322 671121416
            -1867914599 39173 -398360342</internalNodes>
          <leafValues>
            -9.3548387289047241e-01 8.6294418573379517e-01</leafValues></_>
        <_>
          <internalNodes>
            0 -1 25 -1811933605 269549637 830603272 536942592
            -1877962037 -2080243712 1758069024 1182926856</internalNodes>
          <leafValues>
            -8.9062929153442383e-01 8.6067771911621094e-01</leafValues></_>
        <_>
          <internalNodes>
            0 -1 11 -513 -273678920 -1 -9044037 -5308422 -1078984790
            -4521987 -686328321</internalNodes>
          <leafValues>
            -7.6460176706314087e-01 9.3920671939849854e-01</leafValues></_></weakClassifiers></_></stages>
  <features>
    <_>
      <rect>
        0 10 7 7</rect></_>
    <_>
      <rect>
        1 22 4 3</rect></_>
    <_>
      <rect>
        2 3 10 9</rect></_>
    <_>
      <rect>
        3 3 6 3</rect></_>
    <_>
      <rect>
        4 21 8 2</rect></_>
    <_>
      <rect>
        5 10 6 5</rect></_>
    <_>
      <rect>
        6 10 3 3</rect></_>
    <_>
      <rect>
        6 10 4 4</rect></_>
    <_>
      <rect>
        6 17 6 3</rect></_>
    <_>
      <rect>
        7 15 5 3</rect></_>
    <_>
      <rect>
        8 8 5 4</rect></_>
    <_>
      <rect>
        8 9 3 5</rect></_>
    <_>
      <rect>
        8 9 4 4</rect></_>
    <_>
      <rect>
        8 17 3 3</rect></_>
    <_>
      <rect>
        8 22 7 2</rect></_>
    <_>
      <rect>
        9 10 4 5</rect></_>
    <_>
      <rect>
        9 14 3 3</rect></_>
    <_>
      <rect>
        9 14 4 3</rect></_>
    <_>
      <rect>
        9 17 5 5</rect></_>
    <_>
      <rect>
        9 19 3 3</rect></_>
    <_>
      <rect>
        10 10 4 4</rect></_>
    <_>
      <rect>
        10 10 4 6</rect></_>
    <_>
      <rect>
        10 11 5 3</rect></_>
    <_>
      <rect>
        11 9 4 6</rect></_>
    <_>
      <rect>
        12 8 3 5</rect></_>
    <_>
      <rect>
        12 20 5 3</rect></_>
    <_>
      <rect>
        13 2 3 3</rect></_>
    <_>
      <rect>
        13 9 3 2</rect></_>
    <_>
      <rect>
        14 8 3 4</rect></_>
    <_>
      <rect>
        14 8 4 4</rect></_>
    <_>
      <rect>
        15 20 3 2</rect></_>
    <_>
      <rect>
        15 23 3 2</rect></_>
    <_>
      <rect>
        17 7 3 4</rect></_>
    <_>
      <rect>
        17 18 2 2</rect></_>
    <_>
      <rect>
        18 9 3 3</rect></_>
    <_>
      <rect>
        19 14 5 6</rect></_>
    <_>
      <rect>
        20 21 4 3</rect></_>
    <_>
      <rect>
        23 13 3 5</rect></_>
    <_>
      <rect>
        23 17 1 1</rect></_></features></cascade>
</opencv_storage>
